digraph Tree {
node [shape=box, style="filled", color="black", fontname="helvetica"] ;
edge [fontname="helvetica"] ;
0 [label="RM <= 6.978\nsquared_error = 81.238\nsamples = 295\nvalue = 22.277", fillcolor="#f6d2b9"] ;
1 [label="LSTAT <= 16.085\nsquared_error = 37.734\nsamples = 259\nvalue = 19.885", fillcolor="#f7d9c4"] ;
0 -> 1 [labeldistance=2.5, labelangle=45, headlabel="True"] ;
2 [label="DIS <= 1.38\nsquared_error = 23.958\nsamples = 178\nvalue = 22.602", fillcolor="#f6d1b7"] ;
1 -> 2 ;
3 [label="squared_error = 0.0\nsamples = 2\nvalue = 50.0", fillcolor="#e58139"] ;
2 -> 3 ;
4 [label="LSTAT <= 9.95\nsquared_error = 15.603\nsamples = 176\nvalue = 22.291", fillcolor="#f6d2b9"] ;
2 -> 4 ;
5 [label="RM <= 6.544\nsquared_error = 14.011\nsamples = 84\nvalue = 24.782", fillcolor="#f4cbad"] ;
4 -> 5 ;
6 [label="TAX <= 222.5\nsquared_error = 9.157\nsamples = 53\nvalue = 23.183", fillcolor="#f5d0b5"] ;
5 -> 6 ;
7 [label="squared_error = 14.062\nsamples = 2\nvalue = 32.45", fillcolor="#f0b58a"] ;
6 -> 7 ;
8 [label="LSTAT <= 7.76\nsquared_error = 5.465\nsamples = 51\nvalue = 22.82", fillcolor="#f5d1b6"] ;
6 -> 8 ;
9 [label="DIS <= 4.319\nsquared_error = 2.926\nsamples = 29\nvalue = 23.966", fillcolor="#f5cdb1"] ;
8 -> 9 ;
10 [label="squared_error = 4.787\nsamples = 8\nvalue = 25.338", fillcolor="#f4c9ab"] ;
9 -> 10 ;
11 [label="squared_error = 1.226\nsamples = 21\nvalue = 23.443", fillcolor="#f5cfb3"] ;
9 -> 11 ;
12 [label="INDUS <= 2.08\nsquared_error = 4.799\nsamples = 22\nvalue = 21.309", fillcolor="#f6d5bd"] ;
8 -> 12 ;
13 [label="squared_error = 0.829\nsamples = 3\nvalue = 17.767", fillcolor="#f9e0ce"] ;
12 -> 13 ;
14 [label="squared_error = 3.132\nsamples = 19\nvalue = 21.868", fillcolor="#f6d4bb"] ;
12 -> 14 ;
15 [label="LSTAT <= 4.52\nsquared_error = 10.462\nsamples = 31\nvalue = 27.516", fillcolor="#f3c3a1"] ;
5 -> 15 ;
16 [label="squared_error = 1.727\nsamples = 6\nvalue = 30.9", fillcolor="#f1b991"] ;
15 -> 16 ;
17 [label="PTRATIO <= 15.25\nsquared_error = 9.151\nsamples = 25\nvalue = 26.704", fillcolor="#f3c5a4"] ;
15 -> 17 ;
18 [label="squared_error = 25.076\nsamples = 3\nvalue = 30.533", fillcolor="#f1ba93"] ;
17 -> 18 ;
19 [label="NOX <= 0.526\nsquared_error = 4.707\nsamples = 22\nvalue = 26.182", fillcolor="#f3c7a7"] ;
17 -> 19 ;
20 [label="squared_error = 3.892\nsamples = 18\nvalue = 26.756", fillcolor="#f3c5a4"] ;
19 -> 20 ;
21 [label="squared_error = 0.225\nsamples = 4\nvalue = 23.6", fillcolor="#f5ceb3"] ;
19 -> 21 ;
22 [label="INDUS <= 2.675\nsquared_error = 6.217\nsamples = 92\nvalue = 20.016", fillcolor="#f7d9c3"] ;
4 -> 22 ;
23 [label="squared_error = 2.56\nsamples = 2\nvalue = 28.0", fillcolor="#f2c29e"] ;
22 -> 23 ;
24 [label="AGE <= 70.15\nsquared_error = 4.85\nsamples = 90\nvalue = 19.839", fillcolor="#f7dac4"] ;
22 -> 24 ;
25 [label="DIS <= 5.533\nsquared_error = 4.016\nsamples = 41\nvalue = 20.666", fillcolor="#f7d7c0"] ;
24 -> 25 ;
26 [label="RM <= 5.214\nsquared_error = 2.893\nsamples = 31\nvalue = 21.313", fillcolor="#f6d5bd"] ;
25 -> 26 ;
27 [label="squared_error = 0.0\nsamples = 1\nvalue = 16.1", fillcolor="#fae4d5"] ;
26 -> 27 ;
28 [label="squared_error = 2.054\nsamples = 30\nvalue = 21.487", fillcolor="#f6d5bc"] ;
26 -> 28 ;
29 [label="RM <= 6.186\nsquared_error = 2.174\nsamples = 10\nvalue = 18.66", fillcolor="#f8ddca"] ;
25 -> 29 ;
30 [label="squared_error = 0.869\nsamples = 9\nvalue = 18.267", fillcolor="#f8decb"] ;
29 -> 30 ;
31 [label="squared_error = 0.0\nsamples = 1\nvalue = 22.2", fillcolor="#f6d3b9"] ;
29 -> 31 ;
32 [label="LSTAT <= 11.49\nsquared_error = 4.497\nsamples = 49\nvalue = 19.147", fillcolor="#f8dcc7"] ;
24 -> 32 ;
33 [label="LSTAT <= 10.865\nsquared_error = 3.19\nsamples = 10\nvalue = 20.92", fillcolor="#f7d6bf"] ;
32 -> 33 ;
34 [label="squared_error = 1.902\nsamples = 7\nvalue = 20.057", fillcolor="#f7d9c3"] ;
33 -> 34 ;
35 [label="squared_error = 0.402\nsamples = 3\nvalue = 22.933", fillcolor="#f5d0b6"] ;
33 -> 35 ;
36 [label="CRIM <= 0.17\nsquared_error = 3.819\nsamples = 39\nvalue = 18.692", fillcolor="#f8ddc9"] ;
32 -> 36 ;
37 [label="squared_error = 1.598\nsamples = 7\nvalue = 20.486", fillcolor="#f7d8c1"] ;
36 -> 37 ;
38 [label="squared_error = 3.447\nsamples = 32\nvalue = 18.3", fillcolor="#f8decb"] ;
36 -> 38 ;
39 [label="NOX <= 0.603\nsquared_error = 16.126\nsamples = 81\nvalue = 13.914", fillcolor="#fbebdf"] ;
1 -> 39 ;
40 [label="CRIM <= 0.224\nsquared_error = 12.077\nsamples = 28\nvalue = 17.232", fillcolor="#f9e1d0"] ;
39 -> 40 ;
41 [label="PTRATIO <= 15.8\nsquared_error = 7.086\nsamples = 8\nvalue = 21.088", fillcolor="#f7d6be"] ;
40 -> 41 ;
42 [label="squared_error = 0.0\nsamples = 1\nvalue = 27.1", fillcolor="#f3c4a3"] ;
41 -> 42 ;
43 [label="squared_error = 2.196\nsamples = 7\nvalue = 20.229", fillcolor="#f7d8c2"] ;
41 -> 43 ;
44 [label="DIS <= 3.712\nsquared_error = 5.75\nsamples = 20\nvalue = 15.69", fillcolor="#fae6d7"] ;
40 -> 44 ;
45 [label="DIS <= 2.485\nsquared_error = 6.236\nsamples = 10\nvalue = 17.18", fillcolor="#f9e1d0"] ;
44 -> 45 ;
46 [label="squared_error = 2.33\nsamples = 5\nvalue = 14.94", fillcolor="#fae8db"] ;
45 -> 46 ;
47 [label="squared_error = 0.106\nsamples = 5\nvalue = 19.42", fillcolor="#f8dbc6"] ;
45 -> 47 ;
48 [label="B <= 384.545\nsquared_error = 0.824\nsamples = 10\nvalue = 14.2", fillcolor="#fbeade"] ;
44 -> 48 ;
49 [label="squared_error = 0.418\nsamples = 6\nvalue = 13.617", fillcolor="#fbece1"] ;
48 -> 49 ;
50 [label="squared_error = 0.157\nsamples = 4\nvalue = 15.075", fillcolor="#fae7da"] ;
48 -> 50 ;
51 [label="LSTAT <= 18.93\nsquared_error = 9.373\nsamples = 53\nvalue = 12.16", fillcolor="#fcf0e8"] ;
39 -> 51 ;
52 [label="CRIM <= 12.327\nsquared_error = 3.93\nsamples = 18\nvalue = 14.772", fillcolor="#fae8db"] ;
51 -> 52 ;
53 [label="PTRATIO <= 20.7\nsquared_error = 2.495\nsamples = 17\nvalue = 15.076", fillcolor="#fae7da"] ;
52 -> 53 ;
54 [label="CHAS <= 0.5\nsquared_error = 1.893\nsamples = 13\nvalue = 14.562", fillcolor="#fae9dc"] ;
53 -> 54 ;
55 [label="LSTAT <= 17.195\nsquared_error = 1.104\nsamples = 12\nvalue = 14.292", fillcolor="#fbeade"] ;
54 -> 55 ;
56 [label="squared_error = 0.708\nsamples = 6\nvalue = 13.617", fillcolor="#fbece1"] ;
55 -> 56 ;
57 [label="squared_error = 0.589\nsamples = 6\nvalue = 14.967", fillcolor="#fae8db"] ;
55 -> 57 ;
58 [label="squared_error = -0.0\nsamples = 1\nvalue = 17.8", fillcolor="#f8e0ce"] ;
54 -> 58 ;
59 [label="squared_error = 0.788\nsamples = 4\nvalue = 16.75", fillcolor="#f9e3d2"] ;
53 -> 59 ;
60 [label="squared_error = -0.0\nsamples = 1\nvalue = 9.6", fillcolor="#fdf8f3"] ;
52 -> 60 ;
61 [label="TAX <= 551.5\nsquared_error = 6.86\nsamples = 35\nvalue = 10.817", fillcolor="#fdf4ee"] ;
51 -> 61 ;
62 [label="squared_error = 1.187\nsamples = 6\nvalue = 13.8", fillcolor="#fbebe0"] ;
61 -> 62 ;
63 [label="DIS <= 1.427\nsquared_error = 5.812\nsamples = 29\nvalue = 10.2", fillcolor="#fdf6f1"] ;
61 -> 63 ;
64 [label="squared_error = 1.818\nsamples = 5\nvalue = 12.84", fillcolor="#fceee4"] ;
63 -> 64 ;
65 [label="LSTAT <= 28.665\nsquared_error = 4.889\nsamples = 24\nvalue = 9.65", fillcolor="#fdf7f3"] ;
63 -> 65 ;
66 [label="DIS <= 1.962\nsquared_error = 3.118\nsamples = 18\nvalue = 10.511", fillcolor="#fdf5ef"] ;
65 -> 66 ;
67 [label="squared_error = 2.478\nsamples = 14\nvalue = 9.95", fillcolor="#fdf7f2"] ;
66 -> 67 ;
68 [label="squared_error = 0.397\nsamples = 4\nvalue = 12.475", fillcolor="#fcefe6"] ;
66 -> 68 ;
69 [label="squared_error = 1.306\nsamples = 6\nvalue = 7.067", fillcolor="#ffffff"] ;
65 -> 69 ;
70 [label="RM <= 7.437\nsquared_error = 56.81\nsamples = 36\nvalue = 39.489", fillcolor="#eba069"] ;
0 -> 70 [labeldistance=2.5, labelangle=-45, headlabel="False"] ;
71 [label="CHAS <= 0.5\nsquared_error = 24.906\nsamples = 18\nvalue = 33.706", fillcolor="#efb184"] ;
70 -> 71 ;
72 [label="TAX <= 267.0\nsquared_error = 9.834\nsamples = 17\nvalue = 32.747", fillcolor="#efb489"] ;
71 -> 72 ;
73 [label="TAX <= 204.5\nsquared_error = 2.944\nsamples = 8\nvalue = 34.788", fillcolor="#eeae7f"] ;
72 -> 73 ;
74 [label="squared_error = 0.123\nsamples = 2\nvalue = 37.55", fillcolor="#eda672"] ;
73 -> 74 ;
75 [label="squared_error = 0.492\nsamples = 6\nvalue = 33.867", fillcolor="#efb083"] ;
73 -> 75 ;
76 [label="TAX <= 277.0\nsquared_error = 8.969\nsamples = 9\nvalue = 30.933", fillcolor="#f1b991"] ;
72 -> 76 ;
77 [label="squared_error = 0.0\nsamples = 1\nvalue = 23.6", fillcolor="#f5ceb3"] ;
76 -> 77 ;
78 [label="B <= 371.83\nsquared_error = 2.527\nsamples = 8\nvalue = 31.85", fillcolor="#f0b68d"] ;
76 -> 78 ;
79 [label="squared_error = 0.423\nsamples = 2\nvalue = 29.65", fillcolor="#f1bd97"] ;
78 -> 79 ;
80 [label="squared_error = 1.078\nsamples = 6\nvalue = 32.583", fillcolor="#f0b489"] ;
78 -> 80 ;
81 [label="squared_error = 0.0\nsamples = 1\nvalue = 50.0", fillcolor="#e58139"] ;
71 -> 81 ;
82 [label="PTRATIO <= 17.6\nsquared_error = 21.82\nsamples = 18\nvalue = 45.272", fillcolor="#e88f4f"] ;
70 -> 82 ;
83 [label="RM <= 7.706\nsquared_error = 12.126\nsamples = 13\nvalue = 47.277", fillcolor="#e78946"] ;
82 -> 83 ;
84 [label="squared_error = 0.387\nsamples = 4\nvalue = 43.225", fillcolor="#e99558"] ;
83 -> 84 ;
85 [label="RAD <= 6.5\nsquared_error = 6.804\nsamples = 9\nvalue = 49.078", fillcolor="#e6843d"] ;
83 -> 85 ;
86 [label="squared_error = 0.0\nsamples = 7\nvalue = 50.0", fillcolor="#e58139"] ;
85 -> 86 ;
87 [label="squared_error = 17.223\nsamples = 2\nvalue = 45.85", fillcolor="#e88d4c"] ;
85 -> 87 ;
88 [label="squared_error = 9.406\nsamples = 5\nvalue = 40.06", fillcolor="#eb9e67"] ;
82 -> 88 ;
}