digraph Tree {
node [shape=box, style="filled", color="black", fontname="helvetica"] ;
edge [fontname="helvetica"] ;
0 [label="RM <= 6.978\nsquared_error = 81.238\nsamples = 295\nvalue = 22.277", fillcolor="#f5cfb3"] ;
1 [label="LSTAT <= 16.085\nsquared_error = 37.734\nsamples = 259\nvalue = 19.885", fillcolor="#f6d5be"] ;
0 -> 1 [labeldistance=2.5, labelangle=45, headlabel="True"] ;
2 [label="DIS <= 1.38\nsquared_error = 23.958\nsamples = 178\nvalue = 22.602", fillcolor="#f5ceb2"] ;
1 -> 2 ;
3 [label="squared_error = 0.0\nsamples = 2\nvalue = 50.0", fillcolor="#e58139"] ;
2 -> 3 ;
4 [label="LSTAT <= 9.95\nsquared_error = 15.603\nsamples = 176\nvalue = 22.291", fillcolor="#f5cfb3"] ;
2 -> 4 ;
5 [label="RM <= 6.544\nsquared_error = 14.011\nsamples = 84\nvalue = 24.782", fillcolor="#f4c8a8"] ;
4 -> 5 ;
6 [label="TAX <= 222.5\nsquared_error = 9.157\nsamples = 53\nvalue = 23.183", fillcolor="#f4ccaf"] ;
5 -> 6 ;
7 [label="DIS <= 4.33\nsquared_error = 14.062\nsamples = 2\nvalue = 32.45", fillcolor="#efb286"] ;
6 -> 7 ;
8 [label="squared_error = 0.0\nsamples = 1\nvalue = 36.2", fillcolor="#eda876"] ;
7 -> 8 ;
9 [label="squared_error = -0.0\nsamples = 1\nvalue = 28.7", fillcolor="#f1bd97"] ;
7 -> 9 ;
10 [label="LSTAT <= 7.76\nsquared_error = 5.465\nsamples = 51\nvalue = 22.82", fillcolor="#f5cdb1"] ;
6 -> 10 ;
11 [label="DIS <= 4.319\nsquared_error = 2.926\nsamples = 29\nvalue = 23.966", fillcolor="#f4caac"] ;
10 -> 11 ;
12 [label="INDUS <= 6.685\nsquared_error = 4.787\nsamples = 8\nvalue = 25.338", fillcolor="#f3c6a6"] ;
11 -> 12 ;
13 [label="squared_error = 0.0\nsamples = 1\nvalue = 29.1", fillcolor="#f1bc95"] ;
12 -> 13 ;
14 [label="B <= 359.505\nsquared_error = 3.16\nsamples = 7\nvalue = 24.8", fillcolor="#f4c8a8"] ;
12 -> 14 ;
15 [label="AGE <= 96.3\nsquared_error = 1.976\nsamples = 3\nvalue = 26.267", fillcolor="#f3c3a1"] ;
14 -> 15 ;
16 [label="RM <= 4.906\nsquared_error = 0.062\nsamples = 2\nvalue = 27.25", fillcolor="#f2c19d"] ;
15 -> 16 ;
17 [label="squared_error = 0.0\nsamples = 1\nvalue = 27.5", fillcolor="#f2c09c"] ;
16 -> 17 ;
18 [label="squared_error = 0.0\nsamples = 1\nvalue = 27.0", fillcolor="#f2c19e"] ;
16 -> 18 ;
19 [label="squared_error = -0.0\nsamples = 1\nvalue = 24.3", fillcolor="#f4c9aa"] ;
15 -> 19 ;
20 [label="CRIM <= 0.453\nsquared_error = 1.225\nsamples = 4\nvalue = 23.7", fillcolor="#f4cbad"] ;
14 -> 20 ;
21 [label="PTRATIO <= 18.4\nsquared_error = 0.09\nsamples = 2\nvalue = 24.7", fillcolor="#f4c8a8"] ;
20 -> 21 ;
22 [label="squared_error = 0.0\nsamples = 1\nvalue = 25.0", fillcolor="#f3c7a7"] ;
21 -> 22 ;
23 [label="squared_error = 0.0\nsamples = 1\nvalue = 24.4", fillcolor="#f4c9aa"] ;
21 -> 23 ;
24 [label="RAD <= 4.5\nsquared_error = 0.36\nsamples = 2\nvalue = 22.7", fillcolor="#f5cdb1"] ;
20 -> 24 ;
25 [label="squared_error = 0.0\nsamples = 1\nvalue = 22.1", fillcolor="#f5cfb4"] ;
24 -> 25 ;
26 [label="squared_error = -0.0\nsamples = 1\nvalue = 23.3", fillcolor="#f4ccae"] ;
24 -> 26 ;
27 [label="TAX <= 228.5\nsquared_error = 1.226\nsamples = 21\nvalue = 23.443", fillcolor="#f4cbae"] ;
11 -> 27 ;
28 [label="AGE <= 38.3\nsquared_error = 0.562\nsamples = 2\nvalue = 21.45", fillcolor="#f5d1b7"] ;
27 -> 28 ;
29 [label="squared_error = 0.0\nsamples = 1\nvalue = 22.2", fillcolor="#f5cfb3"] ;
28 -> 29 ;
30 [label="squared_error = 0.0\nsamples = 1\nvalue = 20.7", fillcolor="#f6d3ba"] ;
28 -> 30 ;
31 [label="AGE <= 15.1\nsquared_error = 0.834\nsamples = 19\nvalue = 23.653", fillcolor="#f4cbad"] ;
27 -> 31 ;
32 [label="DIS <= 6.559\nsquared_error = 0.136\nsamples = 3\nvalue = 24.833", fillcolor="#f4c7a8"] ;
31 -> 32 ;
33 [label="squared_error = 0.0\nsamples = 1\nvalue = 25.3", fillcolor="#f3c6a6"] ;
32 -> 33 ;
34 [label="B <= 386.675\nsquared_error = 0.04\nsamples = 2\nvalue = 24.6", fillcolor="#f4c8a9"] ;
32 -> 34 ;
35 [label="squared_error = 0.0\nsamples = 1\nvalue = 24.8", fillcolor="#f4c8a8"] ;
34 -> 35 ;
36 [label="squared_error = -0.0\nsamples = 1\nvalue = 24.4", fillcolor="#f4c9aa"] ;
34 -> 36 ;
37 [label="B <= 393.1\nsquared_error = 0.655\nsamples = 16\nvalue = 23.431", fillcolor="#f4cbae"] ;
31 -> 37 ;
38 [label="PTRATIO <= 17.4\nsquared_error = 0.081\nsamples = 6\nvalue = 22.917", fillcolor="#f5cdb0"] ;
37 -> 38 ;
39 [label="CRIM <= 0.066\nsquared_error = 0.002\nsamples = 2\nvalue = 22.55", fillcolor="#f5ceb2"] ;
38 -> 39 ;
40 [label="squared_error = 0.0\nsamples = 1\nvalue = 22.5", fillcolor="#f5ceb2"] ;
39 -> 40 ;
41 [label="squared_error = 0.0\nsamples = 1\nvalue = 22.6", fillcolor="#f5ceb2"] ;
39 -> 41 ;
42 [label="AGE <= 38.0\nsquared_error = 0.02\nsamples = 4\nvalue = 23.1", fillcolor="#f5ccaf"] ;
38 -> 42 ;
43 [label="TAX <= 295.5\nsquared_error = 0.009\nsamples = 3\nvalue = 23.167", fillcolor="#f5ccaf"] ;
42 -> 43 ;
44 [label="squared_error = 0.0\nsamples = 1\nvalue = 23.3", fillcolor="#f4ccae"] ;
43 -> 44 ;
45 [label="LSTAT <= 6.47\nsquared_error = 0.0\nsamples = 2\nvalue = 23.1", fillcolor="#f5ccaf"] ;
43 -> 45 ;
46 [label="squared_error = 0.0\nsamples = 1\nvalue = 23.1", fillcolor="#f5ccaf"] ;
45 -> 46 ;
47 [label="squared_error = 0.0\nsamples = 1\nvalue = 23.1", fillcolor="#f5ccaf"] ;
45 -> 47 ;
48 [label="squared_error = -0.0\nsamples = 1\nvalue = 22.9", fillcolor="#f5cdb0"] ;
42 -> 48 ;
49 [label="AGE <= 53.3\nsquared_error = 0.744\nsamples = 10\nvalue = 23.74", fillcolor="#f4cbad"] ;
37 -> 49 ;
50 [label="AGE <= 31.75\nsquared_error = 0.509\nsamples = 8\nvalue = 24.013", fillcolor="#f4caab"] ;
49 -> 50 ;
51 [label="AGE <= 23.35\nsquared_error = 0.042\nsamples = 3\nvalue = 23.233", fillcolor="#f4ccaf"] ;
50 -> 51 ;
52 [label="squared_error = 0.0\nsamples = 1\nvalue = 23.5", fillcolor="#f4cbae"] ;
51 -> 52 ;
53 [label="PTRATIO <= 18.1\nsquared_error = 0.01\nsamples = 2\nvalue = 23.1", fillcolor="#f5ccaf"] ;
51 -> 53 ;
54 [label="squared_error = 0.0\nsamples = 1\nvalue = 23.2", fillcolor="#f4ccaf"] ;
53 -> 54 ;
55 [label="squared_error = -0.0\nsamples = 1\nvalue = 23.0", fillcolor="#f5cdb0"] ;
53 -> 55 ;
56 [label="LSTAT <= 6.96\nsquared_error = 0.206\nsamples = 5\nvalue = 24.48", fillcolor="#f4c8a9"] ;
50 -> 56 ;
57 [label="DIS <= 5.061\nsquared_error = 0.016\nsamples = 3\nvalue = 24.833", fillcolor="#f4c7a8"] ;
56 -> 57 ;
58 [label="squared_error = 0.0\nsamples = 1\nvalue = 25.0", fillcolor="#f3c7a7"] ;
57 -> 58 ;
59 [label="TAX <= 297.0\nsquared_error = 0.002\nsamples = 2\nvalue = 24.75", fillcolor="#f4c8a8"] ;
57 -> 59 ;
60 [label="squared_error = 0.0\nsamples = 1\nvalue = 24.8", fillcolor="#f4c8a8"] ;
59 -> 60 ;
61 [label="squared_error = 0.0\nsamples = 1\nvalue = 24.7", fillcolor="#f4c8a8"] ;
59 -> 61 ;
62 [label="DIS <= 5.405\nsquared_error = 0.022\nsamples = 2\nvalue = 23.95", fillcolor="#f4caac"] ;
56 -> 62 ;
63 [label="squared_error = 0.0\nsamples = 1\nvalue = 23.8", fillcolor="#f4caac"] ;
62 -> 63 ;
64 [label="squared_error = -0.0\nsamples = 1\nvalue = 24.1", fillcolor="#f4caab"] ;
62 -> 64 ;
65 [label="RM <= 6.416\nsquared_error = 0.203\nsamples = 2\nvalue = 22.65", fillcolor="#f5ceb1"] ;
49 -> 65 ;
66 [label="squared_error = 0.0\nsamples = 1\nvalue = 23.1", fillcolor="#f5ccaf"] ;
65 -> 66 ;
67 [label="squared_error = 0.0\nsamples = 1\nvalue = 22.2", fillcolor="#f5cfb3"] ;
65 -> 67 ;
68 [label="INDUS <= 2.08\nsquared_error = 4.799\nsamples = 22\nvalue = 21.309", fillcolor="#f6d1b7"] ;
10 -> 68 ;
69 [label="CRIM <= 0.034\nsquared_error = 0.829\nsamples = 3\nvalue = 17.767", fillcolor="#f8dbc7"] ;
68 -> 69 ;
70 [label="squared_error = 0.0\nsamples = 1\nvalue = 16.5", fillcolor="#f8dfcc"] ;
69 -> 70 ;
71 [label="B <= 387.565\nsquared_error = 0.04\nsamples = 2\nvalue = 18.4", fillcolor="#f7d9c4"] ;
69 -> 71 ;
72 [label="squared_error = 0.0\nsamples = 1\nvalue = 18.2", fillcolor="#f7dac5"] ;
71 -> 72 ;
73 [label="squared_error = 0.0\nsamples = 1\nvalue = 18.6", fillcolor="#f7d9c3"] ;
71 -> 73 ;
74 [label="PTRATIO <= 19.15\nsquared_error = 3.132\nsamples = 19\nvalue = 21.868", fillcolor="#f5d0b5"] ;
68 -> 74 ;
75 [label="B <= 378.97\nsquared_error = 1.703\nsamples = 12\nvalue = 22.883", fillcolor="#f5cdb0"] ;
74 -> 75 ;
76 [label="B <= 307.435\nsquared_error = 0.062\nsamples = 2\nvalue = 24.75", fillcolor="#f4c8a8"] ;
75 -> 76 ;
77 [label="squared_error = 0.0\nsamples = 1\nvalue = 25.0", fillcolor="#f3c7a7"] ;
76 -> 77 ;
78 [label="squared_error = 0.0\nsamples = 1\nvalue = 24.5", fillcolor="#f4c8a9"] ;
76 -> 78 ;
79 [label="B <= 389.785\nsquared_error = 1.195\nsamples = 10\nvalue = 22.51", fillcolor="#f5ceb2"] ;
75 -> 79 ;
80 [label="AGE <= 42.5\nsquared_error = 0.01\nsamples = 2\nvalue = 21.3", fillcolor="#f6d1b7"] ;
79 -> 80 ;
81 [label="squared_error = 0.0\nsamples = 1\nvalue = 21.2", fillcolor="#f6d2b8"] ;
80 -> 81 ;
82 [label="squared_error = 0.0\nsamples = 1\nvalue = 21.4", fillcolor="#f6d1b7"] ;
80 -> 82 ;
83 [label="PTRATIO <= 18.45\nsquared_error = 1.034\nsamples = 8\nvalue = 22.813", fillcolor="#f5cdb1"] ;
79 -> 83 ;
84 [label="AGE <= 25.15\nsquared_error = 0.628\nsamples = 6\nvalue = 22.383", fillcolor="#f5ceb3"] ;
83 -> 84 ;
85 [label="squared_error = 0.0\nsamples = 1\nvalue = 23.9", fillcolor="#f4caac"] ;
84 -> 85 ;
86 [label="B <= 393.31\nsquared_error = 0.202\nsamples = 5\nvalue = 22.08", fillcolor="#f5cfb4"] ;
84 -> 86 ;
87 [label="squared_error = 0.0\nsamples = 2\nvalue = 22.6", fillcolor="#f5ceb2"] ;
86 -> 87 ;
88 [label="PTRATIO <= 16.55\nsquared_error = 0.036\nsamples = 3\nvalue = 21.733", fillcolor="#f5d0b5"] ;
86 -> 88 ;
89 [label="squared_error = 0.0\nsamples = 1\nvalue = 22.0", fillcolor="#f5cfb4"] ;
88 -> 89 ;
90 [label="squared_error = 0.0\nsamples = 2\nvalue = 21.6", fillcolor="#f5d1b6"] ;
88 -> 90 ;
91 [label="ZN <= 11.0\nsquared_error = 0.04\nsamples = 2\nvalue = 24.1", fillcolor="#f4caab"] ;
83 -> 91 ;
92 [label="squared_error = 0.0\nsamples = 1\nvalue = 23.9", fillcolor="#f4caac"] ;
91 -> 92 ;
93 [label="squared_error = -0.0\nsamples = 1\nvalue = 24.3", fillcolor="#f4c9aa"] ;
91 -> 93 ;
94 [label="LSTAT <= 9.185\nsquared_error = 0.788\nsamples = 7\nvalue = 20.129", fillcolor="#f6d5bc"] ;
74 -> 94 ;
95 [label="CRIM <= 0.354\nsquared_error = 0.178\nsamples = 5\nvalue = 20.64", fillcolor="#f6d3ba"] ;
94 -> 95 ;
96 [label="RM <= 6.048\nsquared_error = 0.052\nsamples = 4\nvalue = 20.825", fillcolor="#f6d3b9"] ;
95 -> 96 ;
97 [label="PTRATIO <= 19.7\nsquared_error = 0.002\nsamples = 2\nvalue = 21.05", fillcolor="#f6d2b8"] ;
96 -> 97 ;
98 [label="squared_error = 0.0\nsamples = 1\nvalue = 21.0", fillcolor="#f6d2b9"] ;
97 -> 98 ;
99 [label="squared_error = 0.0\nsamples = 1\nvalue = 21.1", fillcolor="#f6d2b8"] ;
97 -> 99 ;
100 [label="squared_error = -0.0\nsamples = 2\nvalue = 20.6", fillcolor="#f6d3ba"] ;
96 -> 100 ;
101 [label="squared_error = -0.0\nsamples = 1\nvalue = 19.9", fillcolor="#f6d5bd"] ;
95 -> 101 ;
102 [label="LSTAT <= 9.515\nsquared_error = 0.023\nsamples = 2\nvalue = 18.85", fillcolor="#f7d8c2"] ;
94 -> 102 ;
103 [label="squared_error = 0.0\nsamples = 1\nvalue = 18.7", fillcolor="#f7d9c3"] ;
102 -> 103 ;
104 [label="squared_error = -0.0\nsamples = 1\nvalue = 19.0", fillcolor="#f7d8c1"] ;
102 -> 104 ;
105 [label="LSTAT <= 4.52\nsquared_error = 10.462\nsamples = 31\nvalue = 27.516", fillcolor="#f2c09c"] ;
5 -> 105 ;
106 [label="TAX <= 248.5\nsquared_error = 1.727\nsamples = 6\nvalue = 30.9", fillcolor="#f0b68d"] ;
105 -> 106 ;
107 [label="CRIM <= 0.026\nsquared_error = 0.64\nsamples = 2\nvalue = 29.3", fillcolor="#f1bb94"] ;
106 -> 107 ;
108 [label="squared_error = 0.0\nsamples = 1\nvalue = 30.1", fillcolor="#f0b991"] ;
107 -> 108 ;
109 [label="squared_error = 0.0\nsamples = 1\nvalue = 28.5", fillcolor="#f1bd98"] ;
107 -> 109 ;
110 [label="RM <= 6.676\nsquared_error = 0.35\nsamples = 4\nvalue = 31.7", fillcolor="#f0b48a"] ;
106 -> 110 ;
111 [label="squared_error = 0.0\nsamples = 1\nvalue = 30.8", fillcolor="#f0b78d"] ;
110 -> 111 ;
112 [label="PTRATIO <= 16.35\nsquared_error = 0.107\nsamples = 3\nvalue = 32.0", fillcolor="#efb388"] ;
110 -> 112 ;
113 [label="squared_error = 0.0\nsamples = 1\nvalue = 31.6", fillcolor="#f0b58a"] ;
112 -> 113 ;
114 [label="RM <= 6.806\nsquared_error = 0.04\nsamples = 2\nvalue = 32.2", fillcolor="#efb387"] ;
112 -> 114 ;
115 [label="squared_error = 0.0\nsamples = 1\nvalue = 32.4", fillcolor="#efb286"] ;
114 -> 115 ;
116 [label="squared_error = -0.0\nsamples = 1\nvalue = 32.0", fillcolor="#efb388"] ;
114 -> 116 ;
117 [label="PTRATIO <= 15.25\nsquared_error = 9.151\nsamples = 25\nvalue = 26.704", fillcolor="#f2c2a0"] ;
105 -> 117 ;
118 [label="RM <= 6.911\nsquared_error = 25.076\nsamples = 3\nvalue = 30.533", fillcolor="#f0b88f"] ;
117 -> 118 ;
119 [label="B <= 386.85\nsquared_error = 6.25\nsamples = 2\nvalue = 27.3", fillcolor="#f2c19d"] ;
118 -> 119 ;
120 [label="squared_error = 0.0\nsamples = 1\nvalue = 29.8", fillcolor="#f1ba92"] ;
119 -> 120 ;
121 [label="squared_error = 0.0\nsamples = 1\nvalue = 24.8", fillcolor="#f4c8a8"] ;
119 -> 121 ;
122 [label="squared_error = -0.0\nsamples = 1\nvalue = 37.0", fillcolor="#eda572"] ;
118 -> 122 ;
123 [label="NOX <= 0.526\nsquared_error = 4.707\nsamples = 22\nvalue = 26.182", fillcolor="#f3c4a2"] ;
117 -> 123 ;
124 [label="ZN <= 11.0\nsquared_error = 3.892\nsamples = 18\nvalue = 26.756", fillcolor="#f2c29f"] ;
123 -> 124 ;
125 [label="B <= 395.83\nsquared_error = 1.581\nsamples = 9\nvalue = 28.111", fillcolor="#f2be99"] ;
124 -> 125 ;
126 [label="INDUS <= 5.125\nsquared_error = 1.308\nsamples = 7\nvalue = 27.757", fillcolor="#f2bf9b"] ;
125 -> 126 ;
127 [label="squared_error = 0.0\nsamples = 1\nvalue = 29.9", fillcolor="#f1b991"] ;
126 -> 127 ;
128 [label="B <= 372.805\nsquared_error = 0.633\nsamples = 6\nvalue = 27.4", fillcolor="#f2c09c"] ;
126 -> 128 ;
129 [label="squared_error = 0.0\nsamples = 1\nvalue = 29.0", fillcolor="#f1bc95"] ;
128 -> 129 ;
130 [label="AGE <= 26.95\nsquared_error = 0.146\nsamples = 5\nvalue = 27.08", fillcolor="#f2c19e"] ;
128 -> 130 ;
131 [label="squared_error = 0.0\nsamples = 1\nvalue = 26.6", fillcolor="#f3c3a0"] ;
130 -> 131 ;
132 [label="AGE <= 84.2\nsquared_error = 0.11\nsamples = 4\nvalue = 27.2", fillcolor="#f2c19d"] ;
130 -> 132 ;
133 [label="NOX <= 0.472\nsquared_error = 0.036\nsamples = 3\nvalue = 27.367", fillcolor="#f2c09d"] ;
132 -> 133 ;
134 [label="squared_error = 0.0\nsamples = 1\nvalue = 27.1", fillcolor="#f2c19e"] ;
133 -> 134 ;
135 [label="PTRATIO <= 19.15\nsquared_error = 0.0\nsamples = 2\nvalue = 27.5", fillcolor="#f2c09c"] ;
133 -> 135 ;
136 [label="squared_error = 0.0\nsamples = 1\nvalue = 27.5", fillcolor="#f2c09c"] ;
135 -> 136 ;
137 [label="squared_error = 0.0\nsamples = 1\nvalue = 27.5", fillcolor="#f2c09c"] ;
135 -> 137 ;
138 [label="squared_error = -0.0\nsamples = 1\nvalue = 26.7", fillcolor="#f2c2a0"] ;
132 -> 138 ;
139 [label="LSTAT <= 6.935\nsquared_error = 0.563\nsamples = 2\nvalue = 29.35", fillcolor="#f1bb94"] ;
125 -> 139 ;
140 [label="squared_error = 0.0\nsamples = 1\nvalue = 28.6", fillcolor="#f1bd97"] ;
139 -> 140 ;
141 [label="squared_error = 0.0\nsamples = 1\nvalue = 30.1", fillcolor="#f0b991"] ;
139 -> 141 ;
142 [label="RM <= 6.707\nsquared_error = 2.529\nsamples = 9\nvalue = 25.4", fillcolor="#f3c6a5"] ;
124 -> 142 ;
143 [label="AGE <= 32.8\nsquared_error = 0.126\nsamples = 5\nvalue = 24.24", fillcolor="#f4c9aa"] ;
142 -> 143 ;
144 [label="ZN <= 66.25\nsquared_error = 0.023\nsamples = 2\nvalue = 24.65", fillcolor="#f4c8a9"] ;
143 -> 144 ;
145 [label="squared_error = 0.0\nsamples = 1\nvalue = 24.8", fillcolor="#f4c8a8"] ;
144 -> 145 ;
146 [label="squared_error = 0.0\nsamples = 1\nvalue = 24.5", fillcolor="#f4c8a9"] ;
144 -> 146 ;
147 [label="AGE <= 46.15\nsquared_error = 0.009\nsamples = 3\nvalue = 23.967", fillcolor="#f4caac"] ;
143 -> 147 ;
148 [label="squared_error = 0.0\nsamples = 1\nvalue = 24.1", fillcolor="#f4caab"] ;
147 -> 148 ;
149 [label="squared_error = -0.0\nsamples = 2\nvalue = 23.9", fillcolor="#f4caac"] ;
147 -> 149 ;
150 [label="CRIM <= 0.088\nsquared_error = 1.748\nsamples = 4\nvalue = 26.85", fillcolor="#f2c29f"] ;
142 -> 150 ;
151 [label="PTRATIO <= 18.7\nsquared_error = 0.01\nsamples = 2\nvalue = 28.1", fillcolor="#f2be99"] ;
150 -> 151 ;
152 [label="squared_error = 0.0\nsamples = 1\nvalue = 28.2", fillcolor="#f2be99"] ;
151 -> 152 ;
153 [label="squared_error = -0.0\nsamples = 1\nvalue = 28.0", fillcolor="#f2bf9a"] ;
151 -> 153 ;
154 [label="LSTAT <= 8.03\nsquared_error = 0.36\nsamples = 2\nvalue = 25.6", fillcolor="#f3c5a4"] ;
150 -> 154 ;
155 [label="squared_error = 0.0\nsamples = 1\nvalue = 26.2", fillcolor="#f3c4a2"] ;
154 -> 155 ;
156 [label="squared_error = -0.0\nsamples = 1\nvalue = 25.0", fillcolor="#f3c7a7"] ;
154 -> 156 ;
157 [label="LSTAT <= 4.76\nsquared_error = 0.225\nsamples = 4\nvalue = 23.6", fillcolor="#f4cbad"] ;
123 -> 157 ;
158 [label="squared_error = 0.0\nsamples = 1\nvalue = 22.8", fillcolor="#f5cdb1"] ;
157 -> 158 ;
159 [label="RAD <= 12.5\nsquared_error = 0.016\nsamples = 3\nvalue = 23.867", fillcolor="#f4caac"] ;
157 -> 159 ;
160 [label="DIS <= 3.129\nsquared_error = 0.003\nsamples = 2\nvalue = 23.95", fillcolor="#f4caac"] ;
159 -> 160 ;
161 [label="squared_error = 0.0\nsamples = 1\nvalue = 23.9", fillcolor="#f4caac"] ;
160 -> 161 ;
162 [label="squared_error = 0.0\nsamples = 1\nvalue = 24.0", fillcolor="#f4caab"] ;
160 -> 162 ;
163 [label="squared_error = -0.0\nsamples = 1\nvalue = 23.7", fillcolor="#f4cbad"] ;
159 -> 163 ;
164 [label="INDUS <= 2.675\nsquared_error = 6.217\nsamples = 92\nvalue = 20.016", fillcolor="#f6d5bd"] ;
4 -> 164 ;
165 [label="RM <= 5.878\nsquared_error = 2.56\nsamples = 2\nvalue = 28.0", fillcolor="#f2bf9a"] ;
164 -> 165 ;
166 [label="squared_error = 0.0\nsamples = 1\nvalue = 26.4", fillcolor="#f3c3a1"] ;
165 -> 166 ;
167 [label="squared_error = 0.0\nsamples = 1\nvalue = 29.6", fillcolor="#f1ba93"] ;
165 -> 167 ;
168 [label="AGE <= 70.15\nsquared_error = 4.85\nsamples = 90\nvalue = 19.839", fillcolor="#f6d5be"] ;
164 -> 168 ;
169 [label="DIS <= 5.533\nsquared_error = 4.016\nsamples = 41\nvalue = 20.666", fillcolor="#f6d3ba"] ;
168 -> 169 ;
170 [label="RM <= 5.214\nsquared_error = 2.893\nsamples = 31\nvalue = 21.313", fillcolor="#f6d1b7"] ;
169 -> 170 ;
171 [label="squared_error = 0.0\nsamples = 1\nvalue = 16.1", fillcolor="#f9e0ce"] ;
170 -> 171 ;
172 [label="RM <= 5.879\nsquared_error = 2.054\nsamples = 30\nvalue = 21.487", fillcolor="#f5d1b6"] ;
170 -> 172 ;
173 [label="DIS <= 3.688\nsquared_error = 1.756\nsamples = 13\nvalue = 20.738", fillcolor="#f6d3ba"] ;
172 -> 173 ;
174 [label="TAX <= 528.5\nsquared_error = 0.858\nsamples = 5\nvalue = 21.82", fillcolor="#f5d0b5"] ;
173 -> 174 ;
175 [label="PTRATIO <= 18.85\nsquared_error = 0.147\nsamples = 4\nvalue = 22.25", fillcolor="#f5cfb3"] ;
174 -> 175 ;
176 [label="PTRATIO <= 15.8\nsquared_error = 0.04\nsamples = 2\nvalue = 22.6", fillcolor="#f5ceb2"] ;
175 -> 176 ;
177 [label="squared_error = 0.0\nsamples = 1\nvalue = 22.8", fillcolor="#f5cdb1"] ;
176 -> 177 ;
178 [label="squared_error = -0.0\nsamples = 1\nvalue = 22.4", fillcolor="#f5ceb2"] ;
176 -> 178 ;
179 [label="PTRATIO <= 19.15\nsquared_error = 0.01\nsamples = 2\nvalue = 21.9", fillcolor="#f5d0b5"] ;
175 -> 179 ;
180 [label="squared_error = 0.0\nsamples = 1\nvalue = 22.0", fillcolor="#f5cfb4"] ;
179 -> 180 ;
181 [label="squared_error = 0.0\nsamples = 1\nvalue = 21.8", fillcolor="#f5d0b5"] ;
179 -> 181 ;
182 [label="squared_error = 0.0\nsamples = 1\nvalue = 20.1", fillcolor="#f6d5bd"] ;
174 -> 182 ;
183 [label="AGE <= 55.8\nsquared_error = 1.13\nsamples = 8\nvalue = 20.062", fillcolor="#f6d5bd"] ;
173 -> 183 ;
184 [label="AGE <= 38.45\nsquared_error = 0.725\nsamples = 7\nvalue = 20.329", fillcolor="#f6d4bc"] ;
183 -> 184 ;
185 [label="LSTAT <= 10.95\nsquared_error = 0.165\nsamples = 4\nvalue = 19.7", fillcolor="#f7d6be"] ;
184 -> 185 ;
186 [label="squared_error = 0.0\nsamples = 2\nvalue = 19.3", fillcolor="#f7d7c0"] ;
185 -> 186 ;
187 [label="DIS <= 4.448\nsquared_error = 0.01\nsamples = 2\nvalue = 20.1", fillcolor="#f6d5bd"] ;
185 -> 187 ;
188 [label="squared_error = 0.0\nsamples = 1\nvalue = 20.2", fillcolor="#f6d4bc"] ;
187 -> 188 ;
189 [label="squared_error = -0.0\nsamples = 1\nvalue = 20.0", fillcolor="#f6d5bd"] ;
187 -> 189 ;
190 [label="AGE <= 41.1\nsquared_error = 0.242\nsamples = 3\nvalue = 21.167", fillcolor="#f6d2b8"] ;
184 -> 190 ;
191 [label="squared_error = 0.0\nsamples = 1\nvalue = 21.8", fillcolor="#f5d0b5"] ;
190 -> 191 ;
192 [label="B <= 379.69\nsquared_error = 0.062\nsamples = 2\nvalue = 20.85", fillcolor="#f6d3b9"] ;
190 -> 192 ;
193 [label="squared_error = 0.0\nsamples = 1\nvalue = 20.6", fillcolor="#f6d3ba"] ;
192 -> 193 ;
194 [label="squared_error = -0.0\nsamples = 1\nvalue = 21.1", fillcolor="#f6d2b8"] ;
192 -> 194 ;
195 [label="squared_error = 0.0\nsamples = 1\nvalue = 18.2", fillcolor="#f7dac5"] ;
183 -> 195 ;
196 [label="B <= 392.315\nsquared_error = 1.526\nsamples = 17\nvalue = 22.059", fillcolor="#f5cfb4"] ;
172 -> 196 ;
197 [label="PTRATIO <= 18.3\nsquared_error = 0.138\nsamples = 7\nvalue = 21.086", fillcolor="#f6d2b8"] ;
196 -> 197 ;
198 [label="RM <= 6.026\nsquared_error = 0.023\nsamples = 2\nvalue = 21.55", fillcolor="#f5d1b6"] ;
197 -> 198 ;
199 [label="squared_error = 0.0\nsamples = 1\nvalue = 21.7", fillcolor="#f5d0b6"] ;
198 -> 199 ;
200 [label="squared_error = 0.0\nsamples = 1\nvalue = 21.4", fillcolor="#f6d1b7"] ;
198 -> 200 ;
201 [label="RM <= 6.186\nsquared_error = 0.064\nsamples = 5\nvalue = 20.9", fillcolor="#f6d2b9"] ;
197 -> 201 ;
202 [label="RM <= 5.913\nsquared_error = 0.007\nsamples = 3\nvalue = 20.7", fillcolor="#f6d3ba"] ;
201 -> 202 ;
203 [label="squared_error = 0.0\nsamples = 1\nvalue = 20.6", fillcolor="#f6d3ba"] ;
202 -> 203 ;
204 [label="CRIM <= 0.089\nsquared_error = 0.002\nsamples = 2\nvalue = 20.75", fillcolor="#f6d3ba"] ;
202 -> 204 ;
205 [label="squared_error = 0.0\nsamples = 1\nvalue = 20.8", fillcolor="#f6d3b9"] ;
204 -> 205 ;
206 [label="squared_error = 0.0\nsamples = 1\nvalue = 20.7", fillcolor="#f6d3ba"] ;
204 -> 206 ;
207 [label="squared_error = -0.0\nsamples = 2\nvalue = 21.2", fillcolor="#f6d2b8"] ;
201 -> 207 ;
208 [label="RM <= 5.99\nsquared_error = 1.37\nsamples = 10\nvalue = 22.74", fillcolor="#f5cdb1"] ;
196 -> 208 ;
209 [label="AGE <= 49.3\nsquared_error = 0.382\nsamples = 3\nvalue = 24.167", fillcolor="#f4c9ab"] ;
208 -> 209 ;
210 [label="NOX <= 0.542\nsquared_error = 0.01\nsamples = 2\nvalue = 24.6", fillcolor="#f4c8a9"] ;
209 -> 210 ;
211 [label="squared_error = 0.0\nsamples = 1\nvalue = 24.7", fillcolor="#f4c8a8"] ;
210 -> 211 ;
212 [label="squared_error = -0.0\nsamples = 1\nvalue = 24.5", fillcolor="#f4c8a9"] ;
210 -> 212 ;
213 [label="squared_error = 0.0\nsamples = 1\nvalue = 23.3", fillcolor="#f4ccae"] ;
209 -> 213 ;
214 [label="LSTAT <= 11.735\nsquared_error = 0.548\nsamples = 7\nvalue = 22.129", fillcolor="#f5cfb4"] ;
208 -> 214 ;
215 [label="B <= 396.055\nsquared_error = 0.003\nsamples = 2\nvalue = 23.05", fillcolor="#f5ccb0"] ;
214 -> 215 ;
216 [label="squared_error = 0.0\nsamples = 1\nvalue = 23.1", fillcolor="#f5ccaf"] ;
215 -> 216 ;
217 [label="squared_error = 0.0\nsamples = 1\nvalue = 23.0", fillcolor="#f5cdb0"] ;
215 -> 217 ;
218 [label="TAX <= 295.5\nsquared_error = 0.29\nsamples = 5\nvalue = 21.76", fillcolor="#f5d0b5"] ;
214 -> 218 ;
219 [label="RM <= 6.049\nsquared_error = 0.022\nsamples = 2\nvalue = 22.35", fillcolor="#f5ceb3"] ;
218 -> 219 ;
220 [label="squared_error = 0.0\nsamples = 1\nvalue = 22.5", fillcolor="#f5ceb2"] ;
219 -> 220 ;
221 [label="squared_error = -0.0\nsamples = 1\nvalue = 22.2", fillcolor="#f5cfb3"] ;
219 -> 221 ;
222 [label="TAX <= 344.0\nsquared_error = 0.082\nsamples = 3\nvalue = 21.367", fillcolor="#f6d1b7"] ;
218 -> 222 ;
223 [label="squared_error = 0.0\nsamples = 1\nvalue = 21.0", fillcolor="#f6d2b9"] ;
222 -> 223 ;
224 [label="RM <= 6.202\nsquared_error = 0.023\nsamples = 2\nvalue = 21.55", fillcolor="#f5d1b6"] ;
222 -> 224 ;
225 [label="squared_error = 0.0\nsamples = 1\nvalue = 21.7", fillcolor="#f5d0b6"] ;
224 -> 225 ;
226 [label="squared_error = 0.0\nsamples = 1\nvalue = 21.4", fillcolor="#f6d1b7"] ;
224 -> 226 ;
227 [label="RM <= 6.186\nsquared_error = 2.174\nsamples = 10\nvalue = 18.66", fillcolor="#f7d9c3"] ;
169 -> 227 ;
228 [label="B <= 394.415\nsquared_error = 0.869\nsamples = 9\nvalue = 18.267", fillcolor="#f7dac5"] ;
227 -> 228 ;
229 [label="RM <= 5.956\nsquared_error = 0.029\nsamples = 3\nvalue = 17.267", fillcolor="#f8ddc9"] ;
228 -> 229 ;
230 [label="LSTAT <= 12.55\nsquared_error = 0.003\nsamples = 2\nvalue = 17.15", fillcolor="#f8ddca"] ;
229 -> 230 ;
231 [label="squared_error = 0.0\nsamples = 1\nvalue = 17.1", fillcolor="#f8ddca"] ;
230 -> 231 ;
232 [label="squared_error = 0.0\nsamples = 1\nvalue = 17.2", fillcolor="#f8ddc9"] ;
230 -> 232 ;
233 [label="squared_error = 0.0\nsamples = 1\nvalue = 17.5", fillcolor="#f8dcc8"] ;
229 -> 233 ;
234 [label="INDUS <= 5.855\nsquared_error = 0.539\nsamples = 6\nvalue = 18.767", fillcolor="#f7d8c2"] ;
228 -> 234 ;
235 [label="PTRATIO <= 18.25\nsquared_error = 0.198\nsamples = 5\nvalue = 19.04", fillcolor="#f7d8c1"] ;
234 -> 235 ;
236 [label="ZN <= 50.5\nsquared_error = 0.023\nsamples = 2\nvalue = 19.55", fillcolor="#f7d6bf"] ;
235 -> 236 ;
237 [label="squared_error = 0.0\nsamples = 1\nvalue = 19.7", fillcolor="#f7d6be"] ;
236 -> 237 ;
238 [label="squared_error = 0.0\nsamples = 1\nvalue = 19.4", fillcolor="#f7d7c0"] ;
236 -> 238 ;
239 [label="AGE <= 53.6\nsquared_error = 0.027\nsamples = 3\nvalue = 18.7", fillcolor="#f7d9c3"] ;
235 -> 239 ;
240 [label="squared_error = 0.0\nsamples = 1\nvalue = 18.9", fillcolor="#f7d8c2"] ;
239 -> 240 ;
241 [label="PTRATIO <= 19.95\nsquared_error = 0.01\nsamples = 2\nvalue = 18.6", fillcolor="#f7d9c3"] ;
239 -> 241 ;
242 [label="squared_error = 0.0\nsamples = 1\nvalue = 18.7", fillcolor="#f7d9c3"] ;
241 -> 242 ;
243 [label="squared_error = -0.0\nsamples = 1\nvalue = 18.5", fillcolor="#f7d9c4"] ;
241 -> 243 ;
244 [label="squared_error = 0.0\nsamples = 1\nvalue = 17.4", fillcolor="#f8dcc8"] ;
234 -> 244 ;
245 [label="squared_error = 0.0\nsamples = 1\nvalue = 22.2", fillcolor="#f5cfb3"] ;
227 -> 245 ;
246 [label="LSTAT <= 11.49\nsquared_error = 4.497\nsamples = 49\nvalue = 19.147", fillcolor="#f7d7c1"] ;
168 -> 246 ;
247 [label="LSTAT <= 10.865\nsquared_error = 3.19\nsamples = 10\nvalue = 20.92", fillcolor="#f6d2b9"] ;
246 -> 247 ;
248 [label="RM <= 6.614\nsquared_error = 1.902\nsamples = 7\nvalue = 20.057", fillcolor="#f6d5bd"] ;
247 -> 248 ;
249 [label="DIS <= 2.775\nsquared_error = 0.757\nsamples = 6\nvalue = 19.6", fillcolor="#f7d6bf"] ;
248 -> 249 ;
250 [label="LSTAT <= 10.375\nsquared_error = 0.096\nsamples = 3\nvalue = 18.767", fillcolor="#f7d8c2"] ;
249 -> 250 ;
251 [label="squared_error = 0.0\nsamples = 1\nvalue = 19.2", fillcolor="#f7d7c1"] ;
250 -> 251 ;
252 [label="CRIM <= 0.186\nsquared_error = 0.003\nsamples = 2\nvalue = 18.55", fillcolor="#f7d9c3"] ;
250 -> 252 ;
253 [label="squared_error = 0.0\nsamples = 1\nvalue = 18.5", fillcolor="#f7d9c4"] ;
252 -> 253 ;
254 [label="squared_error = 0.0\nsamples = 1\nvalue = 18.6", fillcolor="#f7d9c3"] ;
252 -> 254 ;
255 [label="RAD <= 15.5\nsquared_error = 0.029\nsamples = 3\nvalue = 20.433", fillcolor="#f6d4bb"] ;
249 -> 255 ;
256 [label="AGE <= 78.25\nsquared_error = 0.003\nsamples = 2\nvalue = 20.55", fillcolor="#f6d3bb"] ;
255 -> 256 ;
257 [label="squared_error = 0.0\nsamples = 1\nvalue = 20.6", fillcolor="#f6d3ba"] ;
256 -> 257 ;
258 [label="squared_error = 0.0\nsamples = 1\nvalue = 20.5", fillcolor="#f6d4bb"] ;
256 -> 258 ;
259 [label="squared_error = -0.0\nsamples = 1\nvalue = 20.2", fillcolor="#f6d4bc"] ;
255 -> 259 ;
260 [label="squared_error = 0.0\nsamples = 1\nvalue = 22.8", fillcolor="#f5cdb1"] ;
248 -> 260 ;
261 [label="DIS <= 2.181\nsquared_error = 0.402\nsamples = 3\nvalue = 22.933", fillcolor="#f5cdb0"] ;
247 -> 261 ;
262 [label="squared_error = 0.0\nsamples = 1\nvalue = 23.8", fillcolor="#f4caac"] ;
261 -> 262 ;
263 [label="RM <= 6.264\nsquared_error = 0.04\nsamples = 2\nvalue = 22.5", fillcolor="#f5ceb2"] ;
261 -> 263 ;
264 [label="squared_error = 0.0\nsamples = 1\nvalue = 22.7", fillcolor="#f5cdb1"] ;
263 -> 264 ;
265 [label="squared_error = 0.0\nsamples = 1\nvalue = 22.3", fillcolor="#f5cfb3"] ;
263 -> 265 ;
266 [label="CRIM <= 0.17\nsquared_error = 3.819\nsamples = 39\nvalue = 18.692", fillcolor="#f7d9c3"] ;
246 -> 266 ;
267 [label="LSTAT <= 14.02\nsquared_error = 1.598\nsamples = 7\nvalue = 20.486", fillcolor="#f6d4bb"] ;
266 -> 267 ;
268 [label="ZN <= 6.25\nsquared_error = 0.206\nsamples = 5\nvalue = 19.78", fillcolor="#f6d6be"] ;
267 -> 268 ;
269 [label="AGE <= 93.55\nsquared_error = 0.015\nsamples = 4\nvalue = 20.0", fillcolor="#f6d5bd"] ;
268 -> 269 ;
270 [label="AGE <= 79.0\nsquared_error = 0.002\nsamples = 3\nvalue = 20.067", fillcolor="#f6d5bd"] ;
269 -> 270 ;
271 [label="squared_error = 0.0\nsamples = 1\nvalue = 20.0", fillcolor="#f6d5bd"] ;
270 -> 271 ;
272 [label="squared_error = -0.0\nsamples = 2\nvalue = 20.1", fillcolor="#f6d5bd"] ;
270 -> 272 ;
273 [label="squared_error = 0.0\nsamples = 1\nvalue = 19.8", fillcolor="#f6d6be"] ;
269 -> 273 ;
274 [label="squared_error = -0.0\nsamples = 1\nvalue = 18.9", fillcolor="#f7d8c2"] ;
268 -> 274 ;
275 [label="RAD <= 3.5\nsquared_error = 0.723\nsamples = 2\nvalue = 22.25", fillcolor="#f5cfb3"] ;
267 -> 275 ;
276 [label="squared_error = 0.0\nsamples = 1\nvalue = 21.4", fillcolor="#f6d1b7"] ;
275 -> 276 ;
277 [label="squared_error = 0.0\nsamples = 1\nvalue = 23.1", fillcolor="#f5ccaf"] ;
275 -> 277 ;
278 [label="CRIM <= 6.912\nsquared_error = 3.447\nsamples = 32\nvalue = 18.3", fillcolor="#f7dac4"] ;
266 -> 278 ;
279 [label="CRIM <= 1.455\nsquared_error = 2.999\nsamples = 31\nvalue = 18.432", fillcolor="#f7d9c4"] ;
278 -> 279 ;
280 [label="B <= 379.155\nsquared_error = 2.441\nsamples = 19\nvalue = 17.9", fillcolor="#f8dbc6"] ;
279 -> 280 ;
281 [label="AGE <= 98.0\nsquared_error = 1.088\nsamples = 6\nvalue = 16.517", fillcolor="#f8dfcc"] ;
280 -> 281 ;
282 [label="B <= 374.685\nsquared_error = 0.33\nsamples = 5\nvalue = 16.92", fillcolor="#f8decb"] ;
281 -> 282 ;
283 [label="CHAS <= 0.5\nsquared_error = 0.062\nsamples = 3\nvalue = 17.333", fillcolor="#f8dcc9"] ;
282 -> 283 ;
284 [label="RAD <= 6.0\nsquared_error = 0.01\nsamples = 2\nvalue = 17.5", fillcolor="#f8dcc8"] ;
283 -> 284 ;
285 [label="squared_error = 0.0\nsamples = 1\nvalue = 17.4", fillcolor="#f8dcc8"] ;
284 -> 285 ;
286 [label="squared_error = 0.0\nsamples = 1\nvalue = 17.6", fillcolor="#f8dcc8"] ;
284 -> 286 ;
287 [label="squared_error = 0.0\nsamples = 1\nvalue = 17.0", fillcolor="#f8ddca"] ;
283 -> 287 ;
288 [label="AGE <= 91.85\nsquared_error = 0.09\nsamples = 2\nvalue = 16.3", fillcolor="#f8dfcd"] ;
282 -> 288 ;
289 [label="squared_error = 0.0\nsamples = 1\nvalue = 16.6", fillcolor="#f8dfcc"] ;
288 -> 289 ;
290 [label="squared_error = 0.0\nsamples = 1\nvalue = 16.0", fillcolor="#f9e0cf"] ;
288 -> 290 ;
291 [label="squared_error = -0.0\nsamples = 1\nvalue = 14.5", fillcolor="#fae4d5"] ;
281 -> 291 ;
292 [label="CRIM <= 0.602\nsquared_error = 1.775\nsamples = 13\nvalue = 18.538", fillcolor="#f7d9c3"] ;
280 -> 292 ;
293 [label="LSTAT <= 11.61\nsquared_error = 1.266\nsamples = 10\nvalue = 18.08", fillcolor="#f7dac5"] ;
292 -> 293 ;
294 [label="squared_error = 0.0\nsamples = 1\nvalue = 16.2", fillcolor="#f9e0ce"] ;
293 -> 294 ;
295 [label="PTRATIO <= 18.8\nsquared_error = 0.97\nsamples = 9\nvalue = 18.289", fillcolor="#f7dac5"] ;
293 -> 295 ;
296 [label="LSTAT <= 13.83\nsquared_error = 0.04\nsamples = 2\nvalue = 19.6", fillcolor="#f7d6bf"] ;
295 -> 296 ;
297 [label="squared_error = 0.0\nsamples = 1\nvalue = 19.4", fillcolor="#f7d7c0"] ;
296 -> 297 ;
298 [label="squared_error = -0.0\nsamples = 1\nvalue = 19.8", fillcolor="#f6d6be"] ;
296 -> 298 ;
299 [label="LSTAT <= 14.215\nsquared_error = 0.604\nsamples = 7\nvalue = 17.914", fillcolor="#f8dbc6"] ;
295 -> 299 ;
300 [label="INDUS <= 15.79\nsquared_error = 0.149\nsamples = 3\nvalue = 18.667", fillcolor="#f7d9c3"] ;
299 -> 300 ;
301 [label="TAX <= 339.0\nsquared_error = 0.01\nsamples = 2\nvalue = 18.4", fillcolor="#f7d9c4"] ;
300 -> 301 ;
302 [label="squared_error = 0.0\nsamples = 1\nvalue = 18.5", fillcolor="#f7d9c4"] ;
301 -> 302 ;
303 [label="squared_error = 0.0\nsamples = 1\nvalue = 18.3", fillcolor="#f7dac4"] ;
301 -> 303 ;
304 [label="squared_error = -0.0\nsamples = 1\nvalue = 19.2", fillcolor="#f7d7c1"] ;
300 -> 304 ;
305 [label="LSTAT <= 14.845\nsquared_error = 0.202\nsamples = 4\nvalue = 17.35", fillcolor="#f8dcc9"] ;
299 -> 305 ;
306 [label="PTRATIO <= 20.2\nsquared_error = 0.022\nsamples = 2\nvalue = 16.95", fillcolor="#f8deca"] ;
305 -> 306 ;
307 [label="squared_error = 0.0\nsamples = 1\nvalue = 16.8", fillcolor="#f8decb"] ;
306 -> 307 ;
308 [label="squared_error = -0.0\nsamples = 1\nvalue = 17.1", fillcolor="#f8ddca"] ;
306 -> 308 ;
309 [label="AGE <= 86.15\nsquared_error = 0.062\nsamples = 2\nvalue = 17.75", fillcolor="#f8dbc7"] ;
305 -> 309 ;
310 [label="squared_error = 0.0\nsamples = 1\nvalue = 17.5", fillcolor="#f8dcc8"] ;
309 -> 310 ;
311 [label="squared_error = 0.0\nsamples = 1\nvalue = 18.0", fillcolor="#f7dbc6"] ;
309 -> 311 ;
312 [label="B <= 386.38\nsquared_error = 0.436\nsamples = 3\nvalue = 20.067", fillcolor="#f6d5bd"] ;
292 -> 312 ;
313 [label="squared_error = 0.0\nsamples = 1\nvalue = 21.0", fillcolor="#f6d2b9"] ;
312 -> 313 ;
314 [label="squared_error = 0.0\nsamples = 2\nvalue = 19.6", fillcolor="#f7d6bf"] ;
312 -> 314 ;
315 [label="AGE <= 89.85\nsquared_error = 2.724\nsamples = 12\nvalue = 19.275", fillcolor="#f7d7c0"] ;
279 -> 315 ;
316 [label="B <= 392.055\nsquared_error = 2.06\nsamples = 6\nvalue = 18.2", fillcolor="#f7dac5"] ;
315 -> 316 ;
317 [label="LSTAT <= 14.645\nsquared_error = 0.429\nsamples = 3\nvalue = 16.867", fillcolor="#f8decb"] ;
316 -> 317 ;
318 [label="DIS <= 2.053\nsquared_error = 0.122\nsamples = 2\nvalue = 16.45", fillcolor="#f8dfcd"] ;
317 -> 318 ;
319 [label="squared_error = 0.0\nsamples = 1\nvalue = 16.8", fillcolor="#f8decb"] ;
318 -> 319 ;
320 [label="squared_error = -0.0\nsamples = 1\nvalue = 16.1", fillcolor="#f9e0ce"] ;
318 -> 320 ;
321 [label="squared_error = -0.0\nsamples = 1\nvalue = 17.7", fillcolor="#f8dbc7"] ;
317 -> 321 ;
322 [label="RM <= 6.097\nsquared_error = 0.136\nsamples = 3\nvalue = 19.533", fillcolor="#f7d6bf"] ;
316 -> 322 ;
323 [label="squared_error = 0.0\nsamples = 1\nvalue = 20.0", fillcolor="#f6d5bd"] ;
322 -> 323 ;
324 [label="CRIM <= 6.173\nsquared_error = 0.04\nsamples = 2\nvalue = 19.3", fillcolor="#f7d7c0"] ;
322 -> 324 ;
325 [label="squared_error = 0.0\nsamples = 1\nvalue = 19.1", fillcolor="#f7d8c1"] ;
324 -> 325 ;
326 [label="squared_error = 0.0\nsamples = 1\nvalue = 19.5", fillcolor="#f7d6bf"] ;
324 -> 326 ;
327 [label="RM <= 5.183\nsquared_error = 1.076\nsamples = 6\nvalue = 20.35", fillcolor="#f6d4bb"] ;
315 -> 327 ;
328 [label="squared_error = 0.0\nsamples = 1\nvalue = 21.9", fillcolor="#f5d0b5"] ;
327 -> 328 ;
329 [label="CHAS <= 0.5\nsquared_error = 0.714\nsamples = 5\nvalue = 20.04", fillcolor="#f6d5bd"] ;
327 -> 329 ;
330 [label="RM <= 6.24\nsquared_error = 0.032\nsamples = 4\nvalue = 19.625", fillcolor="#f7d6bf"] ;
329 -> 330 ;
331 [label="LSTAT <= 14.535\nsquared_error = 0.009\nsamples = 3\nvalue = 19.533", fillcolor="#f7d6bf"] ;
330 -> 331 ;
332 [label="squared_error = 0.0\nsamples = 2\nvalue = 19.6", fillcolor="#f7d6bf"] ;
331 -> 332 ;
333 [label="squared_error = -0.0\nsamples = 1\nvalue = 19.4", fillcolor="#f7d7c0"] ;
331 -> 333 ;
334 [label="squared_error = 0.0\nsamples = 1\nvalue = 19.9", fillcolor="#f6d5bd"] ;
330 -> 334 ;
335 [label="squared_error = -0.0\nsamples = 1\nvalue = 21.7", fillcolor="#f5d0b6"] ;
329 -> 335 ;
336 [label="squared_error = -0.0\nsamples = 1\nvalue = 14.2", fillcolor="#fae5d7"] ;
278 -> 336 ;
337 [label="NOX <= 0.603\nsquared_error = 16.126\nsamples = 81\nvalue = 13.914", fillcolor="#fae6d8"] ;
1 -> 337 ;
338 [label="CRIM <= 0.224\nsquared_error = 12.077\nsamples = 28\nvalue = 17.232", fillcolor="#f8ddc9"] ;
337 -> 338 ;
339 [label="PTRATIO <= 15.8\nsquared_error = 7.086\nsamples = 8\nvalue = 21.088", fillcolor="#f6d2b8"] ;
338 -> 339 ;
340 [label="squared_error = 0.0\nsamples = 1\nvalue = 27.1", fillcolor="#f2c19e"] ;
339 -> 340 ;
341 [label="DIS <= 2.673\nsquared_error = 2.196\nsamples = 7\nvalue = 20.229", fillcolor="#f6d4bc"] ;
339 -> 341 ;
342 [label="INDUS <= 17.83\nsquared_error = 0.416\nsamples = 5\nvalue = 19.4", fillcolor="#f7d7c0"] ;
341 -> 342 ;
343 [label="RAD <= 5.5\nsquared_error = 0.142\nsamples = 4\nvalue = 19.125", fillcolor="#f7d7c1"] ;
342 -> 343 ;
344 [label="squared_error = 0.0\nsamples = 2\nvalue = 19.5", fillcolor="#f7d6bf"] ;
343 -> 344 ;
345 [label="LSTAT <= 16.65\nsquared_error = 0.003\nsamples = 2\nvalue = 18.75", fillcolor="#f7d8c2"] ;
343 -> 345 ;
346 [label="squared_error = 0.0\nsamples = 1\nvalue = 18.8", fillcolor="#f7d8c2"] ;
345 -> 346 ;
347 [label="squared_error = -0.0\nsamples = 1\nvalue = 18.7", fillcolor="#f7d9c3"] ;
345 -> 347 ;
348 [label="squared_error = 0.0\nsamples = 1\nvalue = 20.5", fillcolor="#f6d4bb"] ;
342 -> 348 ;
349 [label="TAX <= 333.5\nsquared_error = 0.64\nsamples = 2\nvalue = 22.3", fillcolor="#f5cfb3"] ;
341 -> 349 ;
350 [label="squared_error = 0.0\nsamples = 1\nvalue = 21.5", fillcolor="#f5d1b6"] ;
349 -> 350 ;
351 [label="squared_error = 0.0\nsamples = 1\nvalue = 23.1", fillcolor="#f5ccaf"] ;
349 -> 351 ;
352 [label="DIS <= 3.712\nsquared_error = 5.75\nsamples = 20\nvalue = 15.69", fillcolor="#f9e1d0"] ;
338 -> 352 ;
353 [label="DIS <= 2.485\nsquared_error = 6.236\nsamples = 10\nvalue = 17.18", fillcolor="#f8ddc9"] ;
352 -> 353 ;
354 [label="NOX <= 0.59\nsquared_error = 2.33\nsamples = 5\nvalue = 14.94", fillcolor="#f9e3d3"] ;
353 -> 354 ;
355 [label="LSTAT <= 21.895\nsquared_error = 0.109\nsamples = 3\nvalue = 13.733", fillcolor="#fae7d9"] ;
354 -> 355 ;
356 [label="AGE <= 94.85\nsquared_error = 0.022\nsamples = 2\nvalue = 13.95", fillcolor="#fae6d8"] ;
355 -> 356 ;
357 [label="squared_error = 0.0\nsamples = 1\nvalue = 14.1", fillcolor="#fae6d7"] ;
356 -> 357 ;
358 [label="squared_error = 0.0\nsamples = 1\nvalue = 13.8", fillcolor="#fae6d8"] ;
356 -> 358 ;
359 [label="squared_error = -0.0\nsamples = 1\nvalue = 13.3", fillcolor="#fae8da"] ;
355 -> 359 ;
360 [label="DIS <= 1.522\nsquared_error = 0.203\nsamples = 2\nvalue = 16.75", fillcolor="#f8decb"] ;
354 -> 360 ;
361 [label="squared_error = 0.0\nsamples = 1\nvalue = 17.2", fillcolor="#f8ddc9"] ;
360 -> 361 ;
362 [label="squared_error = 0.0\nsamples = 1\nvalue = 16.3", fillcolor="#f8dfcd"] ;
360 -> 362 ;
363 [label="B <= 396.07\nsquared_error = 0.106\nsamples = 5\nvalue = 19.42", fillcolor="#f7d7c0"] ;
353 -> 363 ;
364 [label="CHAS <= 0.5\nsquared_error = 0.009\nsamples = 3\nvalue = 19.167", fillcolor="#f7d7c1"] ;
363 -> 364 ;
365 [label="squared_error = 0.0\nsamples = 2\nvalue = 19.1", fillcolor="#f7d8c1"] ;
364 -> 365 ;
366 [label="squared_error = -0.0\nsamples = 1\nvalue = 19.3", fillcolor="#f7d7c0"] ;
364 -> 366 ;
367 [label="RAD <= 15.0\nsquared_error = 0.01\nsamples = 2\nvalue = 19.8", fillcolor="#f6d6be"] ;
363 -> 367 ;
368 [label="squared_error = 0.0\nsamples = 1\nvalue = 19.7", fillcolor="#f7d6be"] ;
367 -> 368 ;
369 [label="squared_error = 0.0\nsamples = 1\nvalue = 19.9", fillcolor="#f6d5bd"] ;
367 -> 369 ;
370 [label="B <= 384.545\nsquared_error = 0.824\nsamples = 10\nvalue = 14.2", fillcolor="#fae5d7"] ;
352 -> 370 ;
371 [label="DIS <= 4.343\nsquared_error = 0.418\nsamples = 6\nvalue = 13.617", fillcolor="#fae7d9"] ;
370 -> 371 ;
372 [label="DIS <= 4.111\nsquared_error = 0.123\nsamples = 4\nvalue = 13.25", fillcolor="#fae8db"] ;
371 -> 372 ;
373 [label="LSTAT <= 24.365\nsquared_error = 0.029\nsamples = 3\nvalue = 13.433", fillcolor="#fae7da"] ;
372 -> 373 ;
374 [label="B <= 312.44\nsquared_error = 0.003\nsamples = 2\nvalue = 13.55", fillcolor="#fae7d9"] ;
373 -> 374 ;
375 [label="squared_error = 0.0\nsamples = 1\nvalue = 13.5", fillcolor="#fae7da"] ;
374 -> 375 ;
376 [label="squared_error = -0.0\nsamples = 1\nvalue = 13.6", fillcolor="#fae7d9"] ;
374 -> 376 ;
377 [label="squared_error = -0.0\nsamples = 1\nvalue = 13.2", fillcolor="#fae8db"] ;
373 -> 377 ;
378 [label="squared_error = 0.0\nsamples = 1\nvalue = 12.7", fillcolor="#fbe9dd"] ;
372 -> 378 ;
379 [label="LSTAT <= 16.895\nsquared_error = 0.202\nsamples = 2\nvalue = 14.35", fillcolor="#fae5d6"] ;
371 -> 379 ;
380 [label="squared_error = 0.0\nsamples = 1\nvalue = 13.9", fillcolor="#fae6d8"] ;
379 -> 380 ;
381 [label="squared_error = -0.0\nsamples = 1\nvalue = 14.8", fillcolor="#f9e4d4"] ;
379 -> 381 ;
382 [label="AGE <= 97.15\nsquared_error = 0.157\nsamples = 4\nvalue = 15.075", fillcolor="#f9e3d3"] ;
370 -> 382 ;
383 [label="RM <= 6.033\nsquared_error = 0.062\nsamples = 3\nvalue = 15.267", fillcolor="#f9e2d2"] ;
382 -> 383 ;
384 [label="squared_error = 0.0\nsamples = 1\nvalue = 15.6", fillcolor="#f9e1d0"] ;
383 -> 384 ;
385 [label="LSTAT <= 19.585\nsquared_error = 0.01\nsamples = 2\nvalue = 15.1", fillcolor="#f9e3d3"] ;
383 -> 385 ;
386 [label="squared_error = 0.0\nsamples = 1\nvalue = 15.2", fillcolor="#f9e2d2"] ;
385 -> 386 ;
387 [label="squared_error = -0.0\nsamples = 1\nvalue = 15.0", fillcolor="#f9e3d3"] ;
385 -> 387 ;
388 [label="squared_error = 0.0\nsamples = 1\nvalue = 14.5", fillcolor="#fae4d5"] ;
382 -> 388 ;
389 [label="LSTAT <= 18.93\nsquared_error = 9.373\nsamples = 53\nvalue = 12.16", fillcolor="#fbebdf"] ;
337 -> 389 ;
390 [label="CRIM <= 12.327\nsquared_error = 3.93\nsamples = 18\nvalue = 14.772", fillcolor="#f9e4d4"] ;
389 -> 390 ;
391 [label="PTRATIO <= 20.7\nsquared_error = 2.495\nsamples = 17\nvalue = 15.076", fillcolor="#f9e3d3"] ;
390 -> 391 ;
392 [label="CHAS <= 0.5\nsquared_error = 1.893\nsamples = 13\nvalue = 14.562", fillcolor="#f9e4d5"] ;
391 -> 392 ;
393 [label="LSTAT <= 17.195\nsquared_error = 1.104\nsamples = 12\nvalue = 14.292", fillcolor="#fae5d6"] ;
392 -> 393 ;
394 [label="B <= 393.205\nsquared_error = 0.708\nsamples = 6\nvalue = 13.617", fillcolor="#fae7d9"] ;
393 -> 394 ;
395 [label="AGE <= 90.95\nsquared_error = 0.322\nsamples = 5\nvalue = 13.32", fillcolor="#fae8da"] ;
394 -> 395 ;
396 [label="AGE <= 84.1\nsquared_error = 0.16\nsamples = 2\nvalue = 13.9", fillcolor="#fae6d8"] ;
395 -> 396 ;
397 [label="squared_error = 0.0\nsamples = 1\nvalue = 13.5", fillcolor="#fae7da"] ;
396 -> 397 ;
398 [label="squared_error = 0.0\nsamples = 1\nvalue = 14.3", fillcolor="#fae5d6"] ;
396 -> 398 ;
399 [label="DIS <= 1.967\nsquared_error = 0.056\nsamples = 3\nvalue = 12.933", fillcolor="#fae9dc"] ;
395 -> 399 ;
400 [label="B <= 240.305\nsquared_error = 0.0\nsamples = 2\nvalue = 13.1", fillcolor="#fae8db"] ;
399 -> 400 ;
401 [label="squared_error = 0.0\nsamples = 1\nvalue = 13.1", fillcolor="#fae8db"] ;
400 -> 401 ;
402 [label="squared_error = 0.0\nsamples = 1\nvalue = 13.1", fillcolor="#fae8db"] ;
400 -> 402 ;
403 [label="squared_error = 0.0\nsamples = 1\nvalue = 12.6", fillcolor="#fbeade"] ;
399 -> 403 ;
404 [label="squared_error = 0.0\nsamples = 1\nvalue = 15.1", fillcolor="#f9e3d3"] ;
394 -> 404 ;
405 [label="CRIM <= 0.128\nsquared_error = 0.589\nsamples = 6\nvalue = 14.967", fillcolor="#f9e3d3"] ;
393 -> 405 ;
406 [label="squared_error = 0.0\nsamples = 1\nvalue = 13.6", fillcolor="#fae7d9"] ;
405 -> 406 ;
407 [label="AGE <= 92.25\nsquared_error = 0.258\nsamples = 5\nvalue = 15.24", fillcolor="#f9e2d2"] ;
405 -> 407 ;
408 [label="squared_error = 0.0\nsamples = 1\nvalue = 16.1", fillcolor="#f9e0ce"] ;
407 -> 408 ;
409 [label="B <= 383.215\nsquared_error = 0.092\nsamples = 4\nvalue = 15.025", fillcolor="#f9e3d3"] ;
407 -> 409 ;
410 [label="LSTAT <= 18.37\nsquared_error = 0.023\nsamples = 2\nvalue = 14.75", fillcolor="#f9e4d4"] ;
409 -> 410 ;
411 [label="squared_error = 0.0\nsamples = 1\nvalue = 14.6", fillcolor="#f9e4d5"] ;
410 -> 411 ;
412 [label="squared_error = 0.0\nsamples = 1\nvalue = 14.9", fillcolor="#f9e3d3"] ;
410 -> 412 ;
413 [label="NOX <= 0.675\nsquared_error = 0.01\nsamples = 2\nvalue = 15.3", fillcolor="#f9e2d2"] ;
409 -> 413 ;
414 [label="squared_error = 0.0\nsamples = 1\nvalue = 15.2", fillcolor="#f9e2d2"] ;
413 -> 414 ;
415 [label="squared_error = -0.0\nsamples = 1\nvalue = 15.4", fillcolor="#f9e2d1"] ;
413 -> 415 ;
416 [label="squared_error = 0.0\nsamples = 1\nvalue = 17.8", fillcolor="#f8dbc7"] ;
392 -> 416 ;
417 [label="RM <= 5.849\nsquared_error = 0.788\nsamples = 4\nvalue = 16.75", fillcolor="#f8decb"] ;
391 -> 417 ;
418 [label="AGE <= 97.2\nsquared_error = 0.09\nsamples = 2\nvalue = 15.9", fillcolor="#f9e0cf"] ;
417 -> 418 ;
419 [label="squared_error = 0.0\nsamples = 1\nvalue = 16.2", fillcolor="#f9e0ce"] ;
418 -> 419 ;
420 [label="squared_error = 0.0\nsamples = 1\nvalue = 15.6", fillcolor="#f9e1d0"] ;
418 -> 420 ;
421 [label="B <= 387.575\nsquared_error = 0.04\nsamples = 2\nvalue = 17.6", fillcolor="#f8dcc8"] ;
417 -> 421 ;
422 [label="squared_error = 0.0\nsamples = 1\nvalue = 17.4", fillcolor="#f8dcc8"] ;
421 -> 422 ;
423 [label="squared_error = -0.0\nsamples = 1\nvalue = 17.8", fillcolor="#f8dbc7"] ;
421 -> 423 ;
424 [label="squared_error = -0.0\nsamples = 1\nvalue = 9.6", fillcolor="#fcf2eb"] ;
390 -> 424 ;
425 [label="TAX <= 551.5\nsquared_error = 6.86\nsamples = 35\nvalue = 10.817", fillcolor="#fcefe5"] ;
389 -> 425 ;
426 [label="RM <= 4.961\nsquared_error = 1.187\nsamples = 6\nvalue = 13.8", fillcolor="#fae6d8"] ;
425 -> 426 ;
427 [label="squared_error = 0.0\nsamples = 1\nvalue = 11.8", fillcolor="#fbece1"] ;
426 -> 427 ;
428 [label="LSTAT <= 22.805\nsquared_error = 0.464\nsamples = 5\nvalue = 14.2", fillcolor="#fae5d7"] ;
426 -> 428 ;
429 [label="squared_error = 0.0\nsamples = 1\nvalue = 15.4", fillcolor="#f9e2d1"] ;
428 -> 429 ;
430 [label="INDUS <= 20.735\nsquared_error = 0.13\nsamples = 4\nvalue = 13.9", fillcolor="#fae6d8"] ;
428 -> 430 ;
431 [label="CHAS <= 0.5\nsquared_error = 0.04\nsamples = 2\nvalue = 13.6", fillcolor="#fae7d9"] ;
430 -> 431 ;
432 [label="squared_error = 0.0\nsamples = 1\nvalue = 13.8", fillcolor="#fae6d8"] ;
431 -> 432 ;
433 [label="squared_error = -0.0\nsamples = 1\nvalue = 13.4", fillcolor="#fae7da"] ;
431 -> 433 ;
434 [label="CRIM <= 0.96\nsquared_error = 0.04\nsamples = 2\nvalue = 14.2", fillcolor="#fae5d7"] ;
430 -> 434 ;
435 [label="squared_error = 0.0\nsamples = 1\nvalue = 14.0", fillcolor="#fae6d7"] ;
434 -> 435 ;
436 [label="squared_error = 0.0\nsamples = 1\nvalue = 14.4", fillcolor="#fae5d6"] ;
434 -> 436 ;
437 [label="DIS <= 1.427\nsquared_error = 5.812\nsamples = 29\nvalue = 10.2", fillcolor="#fcf0e8"] ;
425 -> 437 ;
438 [label="B <= 395.32\nsquared_error = 1.818\nsamples = 5\nvalue = 12.84", fillcolor="#fae9dd"] ;
437 -> 438 ;
439 [label="squared_error = 0.0\nsamples = 1\nvalue = 10.2", fillcolor="#fcf0e8"] ;
438 -> 439 ;
440 [label="RM <= 5.643\nsquared_error = 0.095\nsamples = 4\nvalue = 13.5", fillcolor="#fae7da"] ;
438 -> 440 ;
441 [label="squared_error = 0.0\nsamples = 2\nvalue = 13.8", fillcolor="#fae6d8"] ;
440 -> 441 ;
442 [label="LSTAT <= 22.465\nsquared_error = 0.01\nsamples = 2\nvalue = 13.2", fillcolor="#fae8db"] ;
440 -> 442 ;
443 [label="squared_error = 0.0\nsamples = 1\nvalue = 13.3", fillcolor="#fae8da"] ;
442 -> 443 ;
444 [label="squared_error = 0.0\nsamples = 1\nvalue = 13.1", fillcolor="#fae8db"] ;
442 -> 444 ;
445 [label="LSTAT <= 28.665\nsquared_error = 4.889\nsamples = 24\nvalue = 9.65", fillcolor="#fcf2eb"] ;
437 -> 445 ;
446 [label="DIS <= 1.962\nsquared_error = 3.118\nsamples = 18\nvalue = 10.511", fillcolor="#fcf0e7"] ;
445 -> 446 ;
447 [label="RM <= 6.172\nsquared_error = 2.478\nsamples = 14\nvalue = 9.95", fillcolor="#fcf1e9"] ;
446 -> 447 ;
448 [label="NOX <= 0.697\nsquared_error = 1.708\nsamples = 10\nvalue = 9.28", fillcolor="#fdf3ec"] ;
447 -> 448 ;
449 [label="RM <= 5.359\nsquared_error = 0.991\nsamples = 6\nvalue = 8.583", fillcolor="#fdf5ef"] ;
448 -> 449 ;
450 [label="squared_error = 0.0\nsamples = 1\nvalue = 10.4", fillcolor="#fcf0e7"] ;
449 -> 450 ;
451 [label="PTRATIO <= 20.15\nsquared_error = 0.398\nsamples = 5\nvalue = 8.22", fillcolor="#fdf6f1"] ;
449 -> 451 ;
452 [label="squared_error = 0.0\nsamples = 1\nvalue = 7.0", fillcolor="#fef9f6"] ;
451 -> 452 ;
453 [label="AGE <= 99.45\nsquared_error = 0.032\nsamples = 4\nvalue = 8.525", fillcolor="#fdf5ef"] ;
451 -> 453 ;
454 [label="B <= 168.57\nsquared_error = 0.009\nsamples = 3\nvalue = 8.433", fillcolor="#fdf5f0"] ;
453 -> 454 ;
455 [label="squared_error = 0.0\nsamples = 1\nvalue = 8.3", fillcolor="#fdf6f0"] ;
454 -> 455 ;
456 [label="squared_error = 0.0\nsamples = 2\nvalue = 8.5", fillcolor="#fdf5f0"] ;
454 -> 456 ;
457 [label="squared_error = 0.0\nsamples = 1\nvalue = 8.8", fillcolor="#fdf4ee"] ;
453 -> 457 ;
458 [label="DIS <= 1.905\nsquared_error = 0.962\nsamples = 4\nvalue = 10.325", fillcolor="#fcf0e8"] ;
448 -> 458 ;
459 [label="LSTAT <= 23.695\nsquared_error = 0.109\nsamples = 3\nvalue = 10.867", fillcolor="#fcefe5"] ;
458 -> 459 ;
460 [label="squared_error = 0.0\nsamples = 1\nvalue = 11.3", fillcolor="#fbede3"] ;
459 -> 460 ;
461 [label="RM <= 5.253\nsquared_error = 0.023\nsamples = 2\nvalue = 10.65", fillcolor="#fcefe6"] ;
459 -> 461 ;
462 [label="squared_error = 0.0\nsamples = 1\nvalue = 10.5", fillcolor="#fcf0e7"] ;
461 -> 462 ;
463 [label="squared_error = 0.0\nsamples = 1\nvalue = 10.8", fillcolor="#fcefe5"] ;
461 -> 463 ;
464 [label="squared_error = -0.0\nsamples = 1\nvalue = 8.7", fillcolor="#fdf5ef"] ;
458 -> 464 ;
465 [label="LSTAT <= 20.695\nsquared_error = 0.477\nsamples = 4\nvalue = 11.625", fillcolor="#fbece2"] ;
447 -> 465 ;
466 [label="DIS <= 1.658\nsquared_error = 0.04\nsamples = 2\nvalue = 12.3", fillcolor="#fbebdf"] ;
465 -> 466 ;
467 [label="squared_error = 0.0\nsamples = 1\nvalue = 12.1", fillcolor="#fbebe0"] ;
466 -> 467 ;
468 [label="squared_error = -0.0\nsamples = 1\nvalue = 12.5", fillcolor="#fbeade"] ;
466 -> 468 ;
469 [label="CRIM <= 11.621\nsquared_error = 0.003\nsamples = 2\nvalue = 10.95", fillcolor="#fceee5"] ;
465 -> 469 ;
470 [label="squared_error = 0.0\nsamples = 1\nvalue = 11.0", fillcolor="#fceee5"] ;
469 -> 470 ;
471 [label="squared_error = 0.0\nsamples = 1\nvalue = 10.9", fillcolor="#fceee5"] ;
469 -> 471 ;
472 [label="DIS <= 2.113\nsquared_error = 0.397\nsamples = 4\nvalue = 12.475", fillcolor="#fbeade"] ;
446 -> 472 ;
473 [label="LSTAT <= 24.445\nsquared_error = 0.01\nsamples = 2\nvalue = 11.9", fillcolor="#fbece1"] ;
472 -> 473 ;
474 [label="squared_error = 0.0\nsamples = 1\nvalue = 11.8", fillcolor="#fbece1"] ;
473 -> 474 ;
475 [label="squared_error = 0.0\nsamples = 1\nvalue = 12.0", fillcolor="#fbebe0"] ;
473 -> 475 ;
476 [label="LSTAT <= 21.14\nsquared_error = 0.122\nsamples = 2\nvalue = 13.05", fillcolor="#fae8dc"] ;
472 -> 476 ;
477 [label="squared_error = 0.0\nsamples = 1\nvalue = 12.7", fillcolor="#fbe9dd"] ;
476 -> 477 ;
478 [label="squared_error = -0.0\nsamples = 1\nvalue = 13.4", fillcolor="#fae7da"] ;
476 -> 478 ;
479 [label="DIS <= 1.509\nsquared_error = 1.306\nsamples = 6\nvalue = 7.067", fillcolor="#fef9f6"] ;
445 -> 479 ;
480 [label="DIS <= 1.495\nsquared_error = 0.422\nsamples = 2\nvalue = 5.65", fillcolor="#fffdfc"] ;
479 -> 480 ;
481 [label="squared_error = 0.0\nsamples = 1\nvalue = 5.0", fillcolor="#ffffff"] ;
480 -> 481 ;
482 [label="squared_error = -0.0\nsamples = 1\nvalue = 6.3", fillcolor="#fefbf9"] ;
480 -> 482 ;
483 [label="CRIM <= 15.881\nsquared_error = 0.242\nsamples = 4\nvalue = 7.775", fillcolor="#fdf7f3"] ;
479 -> 483 ;
484 [label="PTRATIO <= 20.15\nsquared_error = 0.023\nsamples = 2\nvalue = 8.25", fillcolor="#fdf6f1"] ;
483 -> 484 ;
485 [label="squared_error = 0.0\nsamples = 1\nvalue = 8.1", fillcolor="#fdf6f1"] ;
484 -> 485 ;
486 [label="squared_error = 0.0\nsamples = 1\nvalue = 8.4", fillcolor="#fdf5f0"] ;
484 -> 486 ;
487 [label="DIS <= 1.677\nsquared_error = 0.01\nsamples = 2\nvalue = 7.3", fillcolor="#fef9f5"] ;
483 -> 487 ;
488 [label="squared_error = 0.0\nsamples = 1\nvalue = 7.4", fillcolor="#fef8f4"] ;
487 -> 488 ;
489 [label="squared_error = -0.0\nsamples = 1\nvalue = 7.2", fillcolor="#fef9f5"] ;
487 -> 489 ;
490 [label="RM <= 7.437\nsquared_error = 56.81\nsamples = 36\nvalue = 39.489", fillcolor="#eb9e67"] ;
0 -> 490 [labeldistance=2.5, labelangle=-45, headlabel="False"] ;
491 [label="AGE <= 94.85\nsquared_error = 24.906\nsamples = 18\nvalue = 33.706", fillcolor="#eeaf81"] ;
490 -> 491 ;
492 [label="TAX <= 267.0\nsquared_error = 9.834\nsamples = 17\nvalue = 32.747", fillcolor="#efb185"] ;
491 -> 492 ;
493 [label="TAX <= 204.5\nsquared_error = 2.944\nsamples = 8\nvalue = 34.788", fillcolor="#eeac7c"] ;
492 -> 493 ;
494 [label="RM <= 7.068\nsquared_error = 0.123\nsamples = 2\nvalue = 37.55", fillcolor="#eca470"] ;
493 -> 494 ;
495 [label="squared_error = 0.0\nsamples = 1\nvalue = 37.2", fillcolor="#eca571"] ;
494 -> 495 ;
496 [label="squared_error = 0.0\nsamples = 1\nvalue = 37.9", fillcolor="#eca36e"] ;
494 -> 496 ;
497 [label="PTRATIO <= 18.35\nsquared_error = 0.492\nsamples = 6\nvalue = 33.867", fillcolor="#eeae80"] ;
493 -> 497 ;
498 [label="NOX <= 0.558\nsquared_error = 0.229\nsamples = 3\nvalue = 34.467", fillcolor="#eeac7d"] ;
497 -> 498 ;
499 [label="DIS <= 5.184\nsquared_error = 0.01\nsamples = 2\nvalue = 34.8", fillcolor="#eeac7c"] ;
498 -> 499 ;
500 [label="squared_error = 0.0\nsamples = 1\nvalue = 34.7", fillcolor="#eeac7c"] ;
499 -> 500 ;
501 [label="squared_error = 0.0\nsamples = 1\nvalue = 34.9", fillcolor="#eeab7b"] ;
499 -> 501 ;
502 [label="squared_error = -0.0\nsamples = 1\nvalue = 33.8", fillcolor="#eeae80"] ;
498 -> 502 ;
503 [label="B <= 393.935\nsquared_error = 0.036\nsamples = 3\nvalue = 33.267", fillcolor="#efb083"] ;
497 -> 503 ;
504 [label="squared_error = 0.0\nsamples = 1\nvalue = 33.0", fillcolor="#efb184"] ;
503 -> 504 ;
505 [label="squared_error = -0.0\nsamples = 2\nvalue = 33.4", fillcolor="#efaf82"] ;
503 -> 505 ;
506 [label="TAX <= 277.0\nsquared_error = 8.969\nsamples = 9\nvalue = 30.933", fillcolor="#f0b68d"] ;
492 -> 506 ;
507 [label="squared_error = 0.0\nsamples = 1\nvalue = 23.6", fillcolor="#f4cbad"] ;
506 -> 507 ;
508 [label="B <= 371.83\nsquared_error = 2.527\nsamples = 8\nvalue = 31.85", fillcolor="#efb489"] ;
506 -> 508 ;
509 [label="INDUS <= 1.88\nsquared_error = 0.423\nsamples = 2\nvalue = 29.65", fillcolor="#f1ba93"] ;
508 -> 509 ;
510 [label="squared_error = 0.0\nsamples = 1\nvalue = 30.3", fillcolor="#f0b890"] ;
509 -> 510 ;
511 [label="squared_error = 0.0\nsamples = 1\nvalue = 29.0", fillcolor="#f1bc95"] ;
509 -> 511 ;
512 [label="PTRATIO <= 13.95\nsquared_error = 1.078\nsamples = 6\nvalue = 32.583", fillcolor="#efb286"] ;
508 -> 512 ;
513 [label="squared_error = 0.0\nsamples = 1\nvalue = 34.6", fillcolor="#eeac7d"] ;
512 -> 513 ;
514 [label="DIS <= 5.593\nsquared_error = 0.318\nsamples = 5\nvalue = 32.18", fillcolor="#efb387"] ;
512 -> 514 ;
515 [label="DIS <= 3.682\nsquared_error = 0.003\nsamples = 2\nvalue = 31.55", fillcolor="#f0b58a"] ;
514 -> 515 ;
516 [label="squared_error = 0.0\nsamples = 1\nvalue = 31.6", fillcolor="#f0b58a"] ;
515 -> 516 ;
517 [label="squared_error = 0.0\nsamples = 1\nvalue = 31.5", fillcolor="#f0b58a"] ;
515 -> 517 ;
518 [label="NOX <= 0.402\nsquared_error = 0.087\nsamples = 3\nvalue = 32.6", fillcolor="#efb286"] ;
514 -> 518 ;
519 [label="squared_error = 0.0\nsamples = 1\nvalue = 32.2", fillcolor="#efb387"] ;
518 -> 519 ;
520 [label="ZN <= 65.0\nsquared_error = 0.01\nsamples = 2\nvalue = 32.8", fillcolor="#efb185"] ;
518 -> 520 ;
521 [label="squared_error = 0.0\nsamples = 1\nvalue = 32.7", fillcolor="#efb185"] ;
520 -> 521 ;
522 [label="squared_error = 0.0\nsamples = 1\nvalue = 32.9", fillcolor="#efb184"] ;
520 -> 522 ;
523 [label="squared_error = 0.0\nsamples = 1\nvalue = 50.0", fillcolor="#e58139"] ;
491 -> 523 ;
524 [label="PTRATIO <= 17.6\nsquared_error = 21.82\nsamples = 18\nvalue = 45.272", fillcolor="#e88e4e"] ;
490 -> 524 ;
525 [label="RM <= 7.706\nsquared_error = 12.126\nsamples = 13\nvalue = 47.277", fillcolor="#e78945"] ;
524 -> 525 ;
526 [label="AGE <= 24.95\nsquared_error = 0.387\nsamples = 4\nvalue = 43.225", fillcolor="#e99457"] ;
525 -> 526 ;
527 [label="squared_error = 0.0\nsamples = 1\nvalue = 42.3", fillcolor="#e9975b"] ;
526 -> 527 ;
528 [label="CRIM <= 0.275\nsquared_error = 0.136\nsamples = 3\nvalue = 43.533", fillcolor="#e99355"] ;
526 -> 528 ;
529 [label="squared_error = 0.0\nsamples = 1\nvalue = 44.0", fillcolor="#e89253"] ;
528 -> 529 ;
530 [label="B <= 389.335\nsquared_error = 0.04\nsamples = 2\nvalue = 43.3", fillcolor="#e99456"] ;
528 -> 530 ;
531 [label="squared_error = 0.0\nsamples = 1\nvalue = 43.1", fillcolor="#e99457"] ;
530 -> 531 ;
532 [label="squared_error = 0.0\nsamples = 1\nvalue = 43.5", fillcolor="#e99356"] ;
530 -> 532 ;
533 [label="LSTAT <= 2.675\nsquared_error = 6.804\nsamples = 9\nvalue = 49.078", fillcolor="#e6843d"] ;
525 -> 533 ;
534 [label="DIS <= 2.94\nsquared_error = 17.222\nsamples = 2\nvalue = 45.85", fillcolor="#e78d4b"] ;
533 -> 534 ;
535 [label="squared_error = 0.0\nsamples = 1\nvalue = 50.0", fillcolor="#e58139"] ;
534 -> 535 ;
536 [label="squared_error = 0.0\nsamples = 1\nvalue = 41.7", fillcolor="#ea985e"] ;
534 -> 536 ;
537 [label="squared_error = 0.0\nsamples = 7\nvalue = 50.0", fillcolor="#e58139"] ;
533 -> 537 ;
538 [label="AGE <= 44.35\nsquared_error = 9.406\nsamples = 5\nvalue = 40.06", fillcolor="#eb9d65"] ;
524 -> 538 ;
539 [label="CRIM <= 0.225\nsquared_error = 0.25\nsamples = 2\nvalue = 43.3", fillcolor="#e99456"] ;
538 -> 539 ;
540 [label="squared_error = 0.0\nsamples = 1\nvalue = 43.8", fillcolor="#e99254"] ;
539 -> 540 ;
541 [label="squared_error = -0.0\nsamples = 1\nvalue = 42.8", fillcolor="#e99559"] ;
539 -> 541 ;
542 [label="CRIM <= 0.171\nsquared_error = 3.847\nsamples = 3\nvalue = 37.9", fillcolor="#eca36e"] ;
538 -> 542 ;
543 [label="LSTAT <= 5.885\nsquared_error = 0.303\nsamples = 2\nvalue = 39.25", fillcolor="#eb9f68"] ;
542 -> 543 ;
544 [label="squared_error = 0.0\nsamples = 1\nvalue = 38.7", fillcolor="#eca16b"] ;
543 -> 544 ;
545 [label="squared_error = 0.0\nsamples = 1\nvalue = 39.8", fillcolor="#eb9e66"] ;
543 -> 545 ;
546 [label="squared_error = 0.0\nsamples = 1\nvalue = 35.2", fillcolor="#eeaa7a"] ;
542 -> 546 ;
}